<?xml version="1.0"?>
<opencv_storage>
<cascade>
  <stageType>BOOST</stageType>
  <featureType>HAAR</featureType>
  <height>40</height>
  <width>80</width>
  <stageParams>
    <boostType>GAB</boostType>
    <minHitRate>9.9900001287460327e-01</minHitRate>
    <maxFalseAlarm>5.0000000000000000e-01</maxFalseAlarm>
    <weightTrimRate>9.4999999999999996e-01</weightTrimRate>
    <maxDepth>1</maxDepth>
    <maxWeakCount>100</maxWeakCount></stageParams>
  <featureParams>
    <maxCatCount>0</maxCatCount>
    <featSize>1</featSize>
    <mode>ALL</mode></featureParams>
  <stageNum>20</stageNum>
  <stages>
    <!-- stage 0 -->
    <_>
      <maxWeakCount>15</maxWeakCount>
      <stageThreshold>-1.4721009731292725e+00</stageThreshold>
      <weakClassifiers>
        <_>
          <internalNodes>
            0 -1 534 5.4105577873997390e-05</internalNodes>
          <leafValues>
            4.9701619148254395e-01 -4.2857143282890320e-01</leafValues></_>
        <_>
          <internalNodes>
            0 -1 68 -1.0193884372711182e-01</internalNodes>
          <leafValues>
            8.0668020248413086e-01 -2.1479223668575287e-01</leafValues></_>
        <_>
          <internalNodes>
            0 -1 546 1.5488403732888401e-04</internalNodes>
          <leafValues>
            2.8026887774467468e-01 -5.8282029628753662e-01</leafValues></_>
        <_>
          <internalNodes>
            0 -1 468 -2.4029102176427841e-02</internalNodes>
          <leafValues>
            7.7306795120239258e-01 -1.9259862601757050e-01</leafValues></_>
        <_>
          <internalNodes>
            0 -1 117 2.8614120557904243e-02</internalNodes>
          <leafValues>
            -1.3433395326137543e-01 8.1541198492050171e-01</leafValues></_>
        <_>
          <internalNodes>
            0 -1 465 2.7915157377719879e-02</internalNodes>
          <leafValues>
            -1.9282551109790802e-01 7.2113424539566040e-01</leafValues></_>
        <_>
          <internalNodes>
            0 -1 376 6.4823904540389776e-04</internalNodes>
          <leafValues>
            -1.7836755514144897e-01 7.7612471580505371e-01</leafValues></_>
        <_>
          <internalNodes>
            0 -1 375 -3.1776115065440536e-04</internalNodes>
          <leafValues>
            8.4330612421035767e-01 -1.0460824519395828e-01</leafValues></_>
        <_>
          <internalNodes>
            0 -1 545 -3.3624113711994141e-05</internalNodes>
          <leafValues>
            -5.4956030845642090e-01 2.5929605960845947e-01</leafValues></_>
        <_>
          <internalNodes>
            0 -1 8 2.2453187557402998e-04</internalNodes>
          <leafValues>
            1.8354059755802155e-01 -6.5563362836837769e-01</leafValues></_>
        <_>
          <internalNodes>
            0 -1 501 -5.8723576366901398e-03</internalNodes>
          <leafValues>
            6.4425289630889893e-01 -2.2890979051589966e-01</leafValues></_>
        <_>
          <internalNodes>
            0 -1 206 -6.8296352401375771e-03</internalNodes>
          <leafValues>
            7.4485868215560913e-01 -1.4340150356292725e-01</leafValues></_>
        <_>
          <internalNodes>
            0 -1 554 -1.7064649728126824e-04</internalNodes>
          <leafValues>
            -4.8134231567382812e-01 2.7967637777328491e-01</leafValues></_>
        <_>
          <internalNodes>
            0 -1 404 5.1393010653555393e-04</internalNodes>
          <leafValues>
            -2.3841080069541931e-01 5.3361618518829346e-01</leafValues></_>
        <_>
          <internalNodes>
            0 -1 27 -2.2440096654463559e-04</internalNodes>
          <leafValues>
            -5.8837956190109253e-01 1.9731958210468292e-01</leafValues></_></weakClassifiers></_>
    <!-- stage 1 -->
    <_>
      <maxWeakCount>11</maxWeakCount>
      <stageThreshold>-1.4756412506103516e+00</stageThreshold>
      <weakClassifiers>
        <_>
          <internalNodes>
            0 -1 6 4.2021584510803223e-01</internalNodes>
          <leafValues>
            4.4395923614501953e-01 -9.2920351028442383e-01</leafValues></_>
        <_>
          <internalNodes>
            0 -1 71 -3.8015626370906830e-02</internalNodes>
          <leafValues>
            7.6138067245483398e-01 -3.0867135524749756e-01</leafValues></_>
        <_>
          <internalNodes>
            0 -1 14 9.1484315693378448e-02</internalNodes>
          <leafValues>
            -1.7129440605640411e-01 7.9796653985977173e-01</leafValues></_>
        <_>
          <internalNodes>
            0 -1 5 -4.6642997860908508e-01</internalNodes>
          <leafValues>
            -7.6623010635375977e-01 2.7879682183265686e-01</leafValues></_>
        <_>
          <internalNodes>
            0 -1 552 3.9166712667793036e-05</internalNodes>
          <leafValues>
            1.4998534321784973e-01 -6.7722469568252563e-01</leafValues></_>
        <_>
          <internalNodes>
            0 -1 553 -6.2804989283904433e-05</internalNodes>
          <leafValues>
            -5.8052098751068115e-01 2.9579499363899231e-01</leafValues></_>
        <_>
          <internalNodes>
            0 -1 109 -3.8165226578712463e-02</internalNodes>
          <leafValues>
            5.9730452299118042e-01 -2.6188200712203979e-01</leafValues></_>
        <_>
          <internalNodes>
            0 -1 141 1.9742198288440704e-02</internalNodes>
          <leafValues>
            -2.7875527739524841e-01 5.1526087522506714e-01</leafValues></_>
        <_>
          <internalNodes>
            0 -1 372 -1.6302014410030097e-04</internalNodes>
          <leafValues>
            7.4856972694396973e-01 -1.4531296491622925e-01</leafValues></_>
        <_>
          <internalNodes>
            0 -1 292 -1.1691940948367119e-02</internalNodes>
          <leafValues>
            6.1448752880096436e-01 -1.6982229053974152e-01</leafValues></_>
        <_>
          <internalNodes>
            0 -1 320 5.2908221259713173e-03</internalNodes>
          <leafValues>
            -2.6341241598129272e-01 5.1222258806228638e-01</leafValues></_></weakClassifiers></_>
    <!-- stage 2 -->
    <_>
      <maxWeakCount>18</maxWeakCount>
      <stageThreshold>-1.0335729122161865e+00</stageThreshold>
      <weakClassifiers>
        <_>
          <internalNodes>
            0 -1 563 3.8722547469660640e-04</internalNodes>
          <leafValues>
            4.1545525193214417e-01 -4.8805460333824158e-01</leafValues></_>
        <_>
          <internalNodes>
            0 -1 85 -3.0330751091241837e-02</internalNodes>
          <leafValues>
            5.3861260414123535e-01 -2.3294951021671295e-01</leafValues></_>
        <_>
          <internalNodes>
            0 -1 25 -9.6600597316864878e-05</internalNodes>
          <leafValues>
            -5.2111870050430298e-01 2.2778289020061493e-01</leafValues></_>
        <_>
          <internalNodes>
            0 -1 161 5.7836379855871201e-03</internalNodes>
          <leafValues>
            -1.5977038443088531e-01 6.7630952596664429e-01</leafValues></_>
        <_>
          <internalNodes>
            0 -1 35 1.8477886915206909e-02</internalNodes>
          <leafValues>
            -1.7654439806938171e-01 6.1758667230606079e-01</leafValues></_>
        <_>
          <internalNodes>
            0 -1 230 1.6369484364986420e-02</internalNodes>
          <leafValues>
            -1.9945521652698517e-01 5.2310025691986084e-01</leafValues></_>
        <_>
          <internalNodes>
            0 -1 49 5.6133974343538284e-02</internalNodes>
          <leafValues>
            -1.7617151141166687e-01 6.4752709865570068e-01</leafValues></_>
        <_>
          <internalNodes>
            0 -1 590 1.5590778275509365e-05</internalNodes>
          <leafValues>
            2.5786265730857849e-01 -4.5654875040054321e-01</leafValues></_>
        <_>
          <internalNodes>
            0 -1 107 -2.1823816001415253e-02</internalNodes>
          <leafValues>
            6.6220301389694214e-01 -1.3629668951034546e-01</leafValues></_>
        <_>
          <internalNodes>
            0 -1 282 -9.7694136202335358e-03</internalNodes>
          <leafValues>
            6.2470895051956177e-01 -1.1920429021120071e-01</leafValues></_>
        <_>
          <internalNodes>
            0 -1 471 3.3869877457618713e-02</internalNodes>
          <leafValues>
            -1.8587873876094818e-01 5.4731869697570801e-01</leafValues></_>
        <_>
          <internalNodes>
            0 -1 581 9.9899567430838943e-05</internalNodes>
          <leafValues>
            2.5591745972633362e-01 -4.0497446060180664e-01</leafValues></_>
        <_>
          <internalNodes>
            0 -1 481 -2.9588502366095781e-03</internalNodes>
          <leafValues>
            4.4596707820892334e-01 -2.4608074128627777e-01</leafValues></_>
        <_>
          <internalNodes>
            0 -1 143 7.9029014159459621e-05</internalNodes>
          <leafValues>
            2.0957185328006744e-01 -4.8660224676132202e-01</leafValues></_>
        <_>
          <internalNodes>
            0 -1 195 -7.5061824172735214e-03</internalNodes>
          <leafValues>
            5.1225286722183228e-01 -1.9918879866600037e-01</leafValues></_>
        <_>
          <internalNodes>
            0 -1 609 5.7548684708308429e-05</internalNodes>
          <leafValues>
            1.6480447351932526e-01 -5.9231352806091309e-01</leafValues></_>
        <_>
          <internalNodes>
            0 -1 186 1.3905553147196770e-02</internalNodes>
          <leafValues>
            -2.0144307613372803e-01 4.9482637643814087e-01</leafValues></_>
        <_>
          <internalNodes>
            0 -1 112 -8.9519936591386795e-03</internalNodes>
          <leafValues>
            4.1720208525657654e-01 -2.0324844121932983e-01</leafValues></_></weakClassifiers></_>
    <!-- stage 3 -->
    <_>
      <maxWeakCount>20</maxWeakCount>
      <stageThreshold>-1.0013284683227539e+00</stageThreshold>
      <weakClassifiers>
        <_>
          <internalNodes>
            0 -1 222 -4.0746730566024780e-01</internalNodes>
          <leafValues>
            -8.1944441795349121e-01 3.5576921701431274e-01</leafValues></_>
        <_>
          <internalNodes>
            0 -1 3 -2.5994415045715868e-04</internalNodes>
          <leafValues>
            -5.9421652555465698e-01 1.6999399662017822e-01</leafValues></_>
        <_>
          <internalNodes>
            0 -1 79 -6.8951609137002379e-05</internalNodes>
          <leafValues>
            -5.4083263874053955e-01 1.6285315155982971e-01</leafValues></_>
        <_>
          <internalNodes>
            0 -1 485 1.5727747231721878e-02</internalNodes>
          <leafValues>
            -2.4697989225387573e-01 4.9761006236076355e-01</leafValues></_>
        <_>
          <internalNodes>
            0 -1 444 1.6391382814617828e-05</internalNodes>
          <leafValues>
            -2.2210769355297089e-01 3.7319633364677429e-01</leafValues></_>
        <_>
          <internalNodes>
            0 -1 0 1.6928968761931174e-05</internalNodes>
          <leafValues>
            -3.1946447491645813e-01 2.7404853701591492e-01</leafValues></_>
        <_>
          <internalNodes>
            0 -1 469 -2.1267404779791832e-02</internalNodes>
          <leafValues>
            6.1292374134063721e-01 -1.2633915245532990e-01</leafValues></_>
        <_>
          <internalNodes>
            0 -1 159 -1.0035379789769650e-02</internalNodes>
          <leafValues>
            4.8051178455352783e-01 -1.5307082235813141e-01</leafValues></_>
        <_>
          <internalNodes>
            0 -1 374 2.8410539380274713e-04</internalNodes>
          <leafValues>
            -1.5521778166294098e-01 5.9916454553604126e-01</leafValues></_>
        <_>
          <internalNodes>
            0 -1 574 -5.2642711671069264e-04</internalNodes>
          <leafValues>
            -6.9457679986953735e-01 1.4791095256805420e-01</leafValues></_>
        <_>
          <internalNodes>
            0 -1 160 7.6531870290637016e-03</internalNodes>
          <leafValues>
            -2.5089132785797119e-01 4.8773965239524841e-01</leafValues></_>
        <_>
          <internalNodes>
            0 -1 408 -2.2755827754735947e-02</internalNodes>
          <leafValues>
            4.7507068514823914e-01 -1.5634466707706451e-01</leafValues></_>
        <_>
          <internalNodes>
            0 -1 253 2.5573018938302994e-03</internalNodes>
          <leafValues>
            -1.6500858962535858e-01 5.1352137327194214e-01</leafValues></_>
        <_>
          <internalNodes>
            0 -1 387 -2.4080654839053750e-04</internalNodes>
          <leafValues>
            7.6446771621704102e-01 -8.8722974061965942e-02</leafValues></_>
        <_>
          <internalNodes>
            0 -1 82 -1.0039943736046553e-03</internalNodes>
          <leafValues>
            -7.7963018417358398e-01 1.2738224864006042e-01</leafValues></_>
        <_>
          <internalNodes>
            0 -1 126 4.9483492039144039e-03</internalNodes>
          <leafValues>
            -1.7559656500816345e-01 5.6193888187408447e-01</leafValues></_>
        <_>
          <internalNodes>
            0 -1 70 -4.7356192022562027e-02</internalNodes>
          <leafValues>
            7.1892958879470825e-01 -1.0766929388046265e-01</leafValues></_>
        <_>
          <internalNodes>
            0 -1 97 1.0962586384266615e-03</internalNodes>
          <leafValues>
            1.6632552444934845e-01 -5.3902596235275269e-01</leafValues></_>
        <_>
          <internalNodes>
            0 -1 194 5.8572888374328613e-03</internalNodes>
          <leafValues>
            -1.8115542829036713e-01 5.0556641817092896e-01</leafValues></_>
        <_>
          <internalNodes>
            0 -1 313 1.5036895638331771e-03</internalNodes>
          <leafValues>
            -1.4207065105438232e-01 5.5491673946380615e-01</leafValues></_></weakClassifiers></_>
    <!-- stage 4 -->
    <_>
      <maxWeakCount>20</maxWeakCount>
      <stageThreshold>-1.1890780925750732e+00</stageThreshold>
      <weakClassifiers>
        <_>
          <internalNodes>
            0 -1 573 4.8859634262043983e-05</internalNodes>
          <leafValues>
            4.6655517816543579e-01 -3.9108911156654358e-01</leafValues></_>
        <_>
          <internalNodes>
            0 -1 573 -3.0866613087709993e-05</internalNodes>
          <leafValues>
            -5.0074100494384766e-01 2.6736202836036682e-01</leafValues></_>
        <_>
          <internalNodes>
            0 -1 360 -2.0739127648994327e-04</internalNodes>
          <leafValues>
            7.0471000671386719e-01 -1.3897030055522919e-01</leafValues></_>
        <_>
          <internalNodes>
            0 -1 358 3.7574971793219447e-04</internalNodes>
          <leafValues>
            -1.7849048972129822e-01 6.2450873851776123e-01</leafValues></_>
        <_>
          <internalNodes>
            0 -1 135 -6.2313556554727256e-05</internalNodes>
          <leafValues>
            -4.5520457625389099e-01 2.2584076225757599e-01</leafValues></_>
        <_>
          <internalNodes>
            0 -1 102 -1.3740130816586316e-04</internalNodes>
          <leafValues>
            -4.8975604772567749e-01 2.0653916895389557e-01</leafValues></_>
        <_>
          <internalNodes>
            0 -1 378 1.2193128932267427e-03</internalNodes>
          <leafValues>
            -1.6295106709003448e-01 7.1789950132369995e-01</leafValues></_>
        <_>
          <internalNodes>
            0 -1 125 -1.0647995024919510e-01</internalNodes>
          <leafValues>
            -6.1911010742187500e-01 1.7128099501132965e-01</leafValues></_>
        <_>
          <internalNodes>
            0 -1 368 1.3669431209564209e-03</internalNodes>
          <leafValues>
            -1.4570705592632294e-01 6.4486294984817505e-01</leafValues></_>
        <_>
          <internalNodes>
            0 -1 226 -2.1354862838052213e-05</internalNodes>
          <leafValues>
            -4.3042057752609253e-01 2.2227163612842560e-01</leafValues></_>
        <_>
          <internalNodes>
            0 -1 505 8.1583566498011351e-04</internalNodes>
          <leafValues>
            -1.4700749516487122e-01 5.9197765588760376e-01</leafValues></_>
        <_>
          <internalNodes>
            0 -1 105 -3.4076394513249397e-05</internalNodes>
          <leafValues>
            -4.6490851044654846e-01 1.8533346056938171e-01</leafValues></_>
        <_>
          <internalNodes>
            0 -1 475 3.2944575650617480e-05</internalNodes>
          <leafValues>
            2.1616417169570923e-01 -3.9313244819641113e-01</leafValues></_>
        <_>
          <internalNodes>
            0 -1 213 5.0268182530999184e-04</internalNodes>
          <leafValues>
            -1.6088335216045380e-01 6.5105932950973511e-01</leafValues></_>
        <_>
          <internalNodes>
            0 -1 606 3.5096373176202178e-04</internalNodes>
          <leafValues>
            1.4459730684757233e-01 -6.2686330080032349e-01</leafValues></_>
        <_>
          <internalNodes>
            0 -1 356 -4.4181596604175866e-04</internalNodes>
          <leafValues>
            7.5988215208053589e-01 -1.2370419502258301e-01</leafValues></_>
        <_>
          <internalNodes>
            0 -1 12 -4.4286280171945691e-05</internalNodes>
          <leafValues>
            -4.8026043176651001e-01 1.9090317189693451e-01</leafValues></_>
        <_>
          <internalNodes>
            0 -1 479 -3.1381279230117798e-02</internalNodes>
          <leafValues>
            6.4494448900222778e-01 -1.2735337018966675e-01</leafValues></_>
        <_>
          <internalNodes>
            0 -1 165 2.2008433006703854e-03</internalNodes>
          <leafValues>
            -1.3017697632312775e-01 6.0510838031768799e-01</leafValues></_>
        <_>
          <internalNodes>
            0 -1 268 -7.8461901284754276e-04</internalNodes>
          <leafValues>
            6.7664527893066406e-01 -1.1529818922281265e-01</leafValues></_></weakClassifiers></_>
    <!-- stage 5 -->
    <_>
      <maxWeakCount>24</maxWeakCount>
      <stageThreshold>-7.9403781890869141e-01</stageThreshold>
      <weakClassifiers>
        <_>
          <internalNodes>
            0 -1 124 -3.0421358346939087e-01</internalNodes>
          <leafValues>
            -7.8417265415191650e-01 3.4839150309562683e-01</leafValues></_>
        <_>
          <internalNodes>
            0 -1 413 -5.7800358626991510e-04</internalNodes>
          <leafValues>
            6.5258097648620605e-01 -1.3596704602241516e-01</leafValues></_>
        <_>
          <internalNodes>
            0 -1 414 3.2694981200620532e-04</internalNodes>
          <leafValues>
            -1.8694290518760681e-01 6.6376286745071411e-01</leafValues></_>
        <_>
          <internalNodes>
            0 -1 343 4.9228058196604252e-04</internalNodes>
          <leafValues>
            -8.8038280606269836e-02 7.7595019340515137e-01</leafValues></_>
        <_>
          <internalNodes>
            0 -1 371 -4.6091689728200436e-04</internalNodes>
          <leafValues>
            6.3140040636062622e-01 -1.7451383173465729e-01</leafValues></_>
        <_>
          <internalNodes>
            0 -1 366 5.6811835383996367e-04</internalNodes>
          <leafValues>
            -1.8868073821067810e-01 5.2593165636062622e-01</leafValues></_>
        <_>
          <internalNodes>
            0 -1 533 6.1896018451079726e-05</internalNodes>
          <leafValues>
            2.2479766607284546e-01 -5.5240589380264282e-01</leafValues></_>
        <_>
          <internalNodes>
            0 -1 435 -1.2555182911455631e-03</internalNodes>
          <leafValues>
            6.3088923692703247e-01 -1.8735189735889435e-01</leafValues></_>
        <_>
          <internalNodes>
            0 -1 526 3.7474510463653132e-05</internalNodes>
          <leafValues>
            2.4800024926662445e-01 -4.2710435390472412e-01</leafValues></_>
        <_>
          <internalNodes>
            0 -1 239 -4.5098019763827324e-03</internalNodes>
          <leafValues>
            6.3415420055389404e-01 -1.7745974659919739e-01</leafValues></_>
        <_>
          <internalNodes>
            0 -1 328 -8.1584247527644038e-04</internalNodes>
          <leafValues>
            6.1531412601470947e-01 -1.3567604124546051e-01</leafValues></_>
        <_>
          <internalNodes>
            0 -1 331 4.4335500570014119e-04</internalNodes>
          <leafValues>
            -1.6901795566082001e-01 4.9911719560623169e-01</leafValues></_>
        <_>
          <internalNodes>
            0 -1 458 2.2681239992380142e-02</internalNodes>
          <leafValues>
            -2.1655054390430450e-01 4.4237634539604187e-01</leafValues></_>
        <_>
          <internalNodes>
            0 -1 174 1.0041665285825729e-02</internalNodes>
          <leafValues>
            -1.3583119213581085e-01 7.2847002744674683e-01</leafValues></_>
        <_>
          <internalNodes>
            0 -1 171 -2.0291234250180423e-05</internalNodes>
          <leafValues>
            -3.4638914465904236e-01 2.4378529191017151e-01</leafValues></_>
        <_>
          <internalNodes>
            0 -1 312 6.4309884328395128e-04</internalNodes>
          <leafValues>
            -1.5048374235630035e-01 5.8881813287734985e-01</leafValues></_>
        <_>
          <internalNodes>
            0 -1 460 -2.0635644905269146e-03</internalNodes>
          <leafValues>
            7.5890493392944336e-01 -1.0635839402675629e-01</leafValues></_>
        <_>
          <internalNodes>
            0 -1 288 -2.2961848881095648e-03</internalNodes>
          <leafValues>
            7.4574357271194458e-01 -8.5304908454418182e-02</leafValues></_>
        <_>
          <internalNodes>
            0 -1 390 3.4667423460632563e-04</internalNodes>
          <leafValues>
            -6.6104963421821594e-02 9.2279332876205444e-01</leafValues></_>
        <_>
          <internalNodes>
            0 -1 163 -4.6795146772637963e-04</internalNodes>
          <leafValues>
            6.6295588016510010e-01 -1.0227171331644058e-01</leafValues></_>
        <_>
          <internalNodes>
            0 -1 270 -7.5763225322589278e-04</internalNodes>
          <leafValues>
            6.2686866521835327e-01 -1.2286183238029480e-01</leafValues></_>
        <_>
          <internalNodes>
            0 -1 216 -3.0142604373395443e-05</internalNodes>
          <leafValues>
            -5.2149558067321777e-01 1.8644201755523682e-01</leafValues></_>
        <_>
          <internalNodes>
            0 -1 300 -2.4250210262835026e-03</internalNodes>
          <leafValues>
            7.1528196334838867e-01 -1.3375428318977356e-01</leafValues></_>
        <_>
          <internalNodes>
            0 -1 257 2.1836960222572088e-03</internalNodes>
          <leafValues>
            -1.5041965246200562e-01 5.6127154827117920e-01</leafValues></_></weakClassifiers></_>
    <!-- stage 6 -->
    <_>
      <maxWeakCount>30</maxWeakCount>
      <stageThreshold>-9.7472941875457764e-01</stageThreshold>
      <weakClassifiers>
        <_>
          <internalNodes>
            0 -1 51 1.5219429135322571e-01</internalNodes>
          <leafValues>
            3.6005726456642151e-01 -5.0738918781280518e-01</leafValues></_>
        <_>
          <internalNodes>
            0 -1 9 -1.1966902017593384e-01</internalNodes>
          <leafValues>
            4.7934418916702271e-01 -1.7692138254642487e-01</leafValues></_>
        <_>
          <internalNodes>
            0 -1 19 1.0026513040065765e-01</internalNodes>
          <leafValues>
            -1.3652658462524414e-01 5.9843540191650391e-01</leafValues></_>
        <_>
          <internalNodes>
            0 -1 297 -5.6839496828615665e-03</internalNodes>
          <leafValues>
            4.6641179919242859e-01 -1.0977694392204285e-01</leafValues></_>
        <_>
          <internalNodes>
            0 -1 61 -2.0875429527222877e-06</internalNodes>
          <leafValues>
            2.2690211236476898e-01 -3.1454706192016602e-01</leafValues></_>
        <_>
          <internalNodes>
            0 -1 247 -3.1817436683923006e-03</internalNodes>
          <leafValues>
            3.9083167910575867e-01 -1.7405626177787781e-01</leafValues></_>
        <_>
          <internalNodes>
            0 -1 272 6.6689895465970039e-03</internalNodes>
          <leafValues>
            -1.3164022564888000e-01 5.4220932722091675e-01</leafValues></_>
        <_>
          <internalNodes>
            0 -1 340 -1.2917891144752502e-02</internalNodes>
          <leafValues>
            4.5534786581993103e-01 -1.3654422760009766e-01</leafValues></_>
        <_>
          <internalNodes>
            0 -1 599 1.8698453914112179e-06</internalNodes>
          <leafValues>
            -2.3361629247665405e-01 3.0395188927650452e-01</leafValues></_>
        <_>
          <internalNodes>
            0 -1 564 -5.5841323046479374e-05</internalNodes>
          <leafValues>
            -5.3206765651702881e-01 1.4868406951427460e-01</leafValues></_>
        <_>
          <internalNodes>
            0 -1 286 -9.3011488206684589e-04</internalNodes>
          <leafValues>
            4.5826590061187744e-01 -1.8768805265426636e-01</leafValues></_>
        <_>
          <internalNodes>
            0 -1 357 1.6476592281833291e-04</internalNodes>
          <leafValues>
            -9.5995172858238220e-02 6.1985772848129272e-01</leafValues></_>
        <_>
          <internalNodes>
            0 -1 46 5.6676615029573441e-02</internalNodes>
          <leafValues>
            -1.3086059689521790e-01 4.8349583148956299e-01</leafValues></_>
        <_>
          <internalNodes>
            0 -1 150 -4.7946595586836338e-03</internalNodes>
          <leafValues>
            5.0860214233398438e-01 -1.8067762255668640e-01</leafValues></_>
        <_>
          <internalNodes>
            0 -1 493 -4.9417936243116856e-03</internalNodes>
          <leafValues>
            5.8176791667938232e-01 -9.4445772469043732e-02</leafValues></_>
        <_>
          <internalNodes>
            0 -1 565 7.3025599704124033e-05</internalNodes>
          <leafValues>
            1.8055133521556854e-01 -4.1137528419494629e-01</leafValues></_>
        <_>
          <internalNodes>
            0 -1 400 -3.7147151306271553e-04</internalNodes>
          <leafValues>
            5.7553106546401978e-01 -1.3050612807273865e-01</leafValues></_>
        <_>
          <internalNodes>
            0 -1 397 1.8232196907774778e-06</internalNodes>
          <leafValues>
            -1.9670729339122772e-01 3.2245472073554993e-01</leafValues></_>
        <_>
          <internalNodes>
            0 -1 488 7.3978132568299770e-03</internalNodes>
          <leafValues>
            -1.2659551203250885e-01 5.1628780364990234e-01</leafValues></_>
        <_>
          <internalNodes>
            0 -1 118 -7.0021126884967089e-04</internalNodes>
          <leafValues>
            -4.9269917607307434e-01 1.4444243907928467e-01</leafValues></_>
        <_>
          <internalNodes>
            0 -1 502 -1.5705022960901260e-03</internalNodes>
          <leafValues>
            6.2774890661239624e-01 -1.2513239681720734e-01</leafValues></_>
        <_>
          <internalNodes>
            0 -1 302 4.5429036254063249e-04</internalNodes>
          <leafValues>
            -2.0010244846343994e-01 3.4711346030235291e-01</leafValues></_>
        <_>
          <internalNodes>
            0 -1 146 2.0476754798437469e-06</internalNodes>
          <leafValues>
            -2.2830641269683838e-01 2.9328814148902893e-01</leafValues></_>
        <_>
          <internalNodes>
            0 -1 527 5.4713636927772313e-05</internalNodes>
          <leafValues>
            1.5907847881317139e-01 -4.6795845031738281e-01</leafValues></_>
        <_>
          <internalNodes>
            0 -1 436 -3.9735599420964718e-04</internalNodes>
          <leafValues>
            3.6445975303649902e-01 -2.0799604058265686e-01</leafValues></_>
        <_>
          <internalNodes>
            0 -1 280 8.0620780587196350e-02</internalNodes>
          <leafValues>
            -1.4214596152305603e-01 5.0245141983032227e-01</leafValues></_>
        <_>
          <internalNodes>
            0 -1 363 1.0345711780246347e-04</internalNodes>
          <leafValues>
            -1.1668369174003601e-01 5.8362144231796265e-01</leafValues></_>
        <_>
          <internalNodes>
            0 -1 217 6.6207183408550918e-05</internalNodes>
          <leafValues>
            1.8867461383342743e-01 -4.2597806453704834e-01</leafValues></_>
        <_>
          <internalNodes>
            0 -1 384 -2.1043363958597183e-02</internalNodes>
          <leafValues>
            5.5473941564559937e-01 -1.5338063240051270e-01</leafValues></_>
        <_>
          <internalNodes>
            0 -1 279 6.6326335072517395e-03</internalNodes>
          <leafValues>
            -1.6254960000514984e-01 4.7134059667587280e-01</leafValues></_></weakClassifiers></_>
    <!-- stage 7 -->
    <_>
      <maxWeakCount>21</maxWeakCount>
      <stageThreshold>-1.1646071672439575e+00</stageThreshold>
      <weakClassifiers>
        <_>
          <internalNodes>
            0 -1 597 2.0875429527222877e-06</internalNodes>
          <leafValues>
            -1.1662530899047852e-01 6.2216627597808838e-01</leafValues></_>
        <_>
          <internalNodes>
            0 -1 136 1.8098689906764776e-06</internalNodes>
          <leafValues>
            -2.5298416614532471e-01 4.2737966775894165e-01</leafValues></_>
        <_>
          <internalNodes>
            0 -1 29 -2.1648138761520386e-01</internalNodes>
          <leafValues>
            6.9023990631103516e-01 -1.3813316822052002e-01</leafValues></_>
        <_>
          <internalNodes>
            0 -1 28 2.0380159639898920e-06</internalNodes>
          <leafValues>
            -3.1642323732376099e-01 3.2540851831436157e-01</leafValues></_>
        <_>
          <internalNodes>
            0 -1 591 2.6450131554156542e-04</internalNodes>
          <leafValues>
            1.2455172836780548e-01 -7.2737187147140503e-01</leafValues></_>
        <_>
          <internalNodes>
            0 -1 520 -1.6892173562155222e-06</internalNodes>
          <leafValues>
            3.2884266972541809e-01 -2.6492097973823547e-01</leafValues></_>
        <_>
          <internalNodes>
            0 -1 23 2.1447456219902961e-06</internalNodes>
          <leafValues>
            -2.7240595221519470e-01 3.2928603887557983e-01</leafValues></_>
        <_>
          <internalNodes>
            0 -1 385 -4.9603648949414492e-04</internalNodes>
          <leafValues>
            8.0016207695007324e-01 -9.9758498370647430e-02</leafValues></_>
        <_>
          <internalNodes>
            0 -1 240 -1.0742021258920431e-03</internalNodes>
          <leafValues>
            6.0572522878646851e-01 -1.0502820461988449e-01</leafValues></_>
        <_>
          <internalNodes>
            0 -1 513 -1.6040592072386062e-06</internalNodes>
          <leafValues>
            3.6619728803634644e-01 -2.0161271095275879e-01</leafValues></_>
        <_>
          <internalNodes>
            0 -1 593 1.2676979531534016e-04</internalNodes>
          <leafValues>
            1.5936501324176788e-01 -4.8165497183799744e-01</leafValues></_>
        <_>
          <internalNodes>
            0 -1 583 -1.6892173562155222e-06</internalNodes>
          <leafValues>
            2.8662770986557007e-01 -2.7475804090499878e-01</leafValues></_>
        <_>
          <internalNodes>
            0 -1 575 2.4905838072299957e-03</internalNodes>
          <leafValues>
            1.6308793425559998e-01 -4.9270844459533691e-01</leafValues></_>
        <_>
          <internalNodes>
            0 -1 398 2.3629247152712196e-04</internalNodes>
          <leafValues>
            -1.1949760466814041e-01 7.0410597324371338e-01</leafValues></_>
        <_>
          <internalNodes>
            0 -1 231 -1.2249338033143431e-04</internalNodes>
          <leafValues>
            5.5747717618942261e-01 -1.2411038577556610e-01</leafValues></_>
        <_>
          <internalNodes>
            0 -1 60 -7.6380056270863861e-06</internalNodes>
          <leafValues>
            2.9297599196434021e-01 -2.7488020062446594e-01</leafValues></_>
        <_>
          <internalNodes>
            0 -1 140 9.6744061011122540e-06</internalNodes>
          <leafValues>
            -2.2240632772445679e-01 3.4237265586853027e-01</leafValues></_>
        <_>
          <internalNodes>
            0 -1 359 -2.5608018040657043e-04</internalNodes>
          <leafValues>
            8.1495493650436401e-01 -1.0271539539098740e-01</leafValues></_>
        <_>
          <internalNodes>
            0 -1 181 -5.3537163883447647e-02</internalNodes>
          <leafValues>
            -8.1831765174865723e-01 1.1459348350763321e-01</leafValues></_>
        <_>
          <internalNodes>
            0 -1 130 5.6444237998221070e-05</internalNodes>
          <leafValues>
            1.3051801919937134e-01 -5.2558928728103638e-01</leafValues></_>
        <_>
          <internalNodes>
            0 -1 40 3.9118560380302370e-05</internalNodes>
          <leafValues>
            -2.7912196516990662e-01 2.7225387096405029e-01</leafValues></_></weakClassifiers></_>
    <!-- stage 8 -->
    <_>
      <maxWeakCount>29</maxWeakCount>
      <stageThreshold>-1.0303457975387573e+00</stageThreshold>
      <weakClassifiers>
        <_>
          <internalNodes>
            0 -1 62 -1.2239887146279216e-03</internalNodes>
          <leafValues>
            -6.4497041702270508e-01 3.5569530725479126e-01</leafValues></_>
        <_>
          <internalNodes>
            0 -1 78 2.2700999397784472e-04</internalNodes>
          <leafValues>
            2.1912442147731781e-01 -5.5063968896865845e-01</leafValues></_>
        <_>
          <internalNodes>
            0 -1 50 -2.3105806112289429e-01</internalNodes>
          <leafValues>
            5.9938341379165649e-01 -1.7957541346549988e-01</leafValues></_>
        <_>
          <internalNodes>
            0 -1 578 2.1507748169824481e-04</internalNodes>
          <leafValues>
            1.4898934960365295e-01 -5.0862121582031250e-01</leafValues></_>
        <_>
          <internalNodes>
            0 -1 434 -1.6737249679863453e-03</internalNodes>
          <leafValues>
            3.3363401889801025e-01 -2.1441259980201721e-01</leafValues></_>
        <_>
          <internalNodes>
            0 -1 584 -1.4721840852871537e-03</internalNodes>
          <leafValues>
            -5.7415330410003662e-01 1.6561174392700195e-01</leafValues></_>
        <_>
          <internalNodes>
            0 -1 484 -1.9873989003826864e-05</internalNodes>
          <leafValues>
            -4.9147027730941772e-01 9.0017326176166534e-02</leafValues></_>
        <_>
          <internalNodes>
            0 -1 382 3.2676372211426497e-04</internalNodes>
          <leafValues>
            -1.0435470938682556e-01 5.4095631837844849e-01</leafValues></_>
        <_>
          <internalNodes>
            0 -1 276 -3.5894312895834446e-04</internalNodes>
          <leafValues>
            5.8269822597503662e-01 -6.7964054644107819e-02</leafValues></_>
        <_>
          <internalNodes>
            0 -1 549 1.6724897432141006e-04</internalNodes>
          <leafValues>
            1.2923187017440796e-01 -4.6623706817626953e-01</leafValues></_>
        <_>
          <internalNodes>
            0 -1 556 2.5744844606379047e-05</internalNodes>
          <leafValues>
            1.8645034730434418e-01 -2.9768568277359009e-01</leafValues></_>
        <_>
          <internalNodes>
            0 -1 293 3.8321307511068881e-04</internalNodes>
          <leafValues>
            -1.8759940564632416e-01 3.3355674147605896e-01</leafValues></_>
        <_>
          <internalNodes>
            0 -1 76 -8.7983731646090746e-04</internalNodes>
          <leafValues>
            -4.8434451222419739e-01 1.1526633054018021e-01</leafValues></_>
        <_>
          <internalNodes>
            0 -1 326 2.3481497191824019e-04</internalNodes>
          <leafValues>
            -1.1112777143716812e-01 5.0035667419433594e-01</leafValues></_>
        <_>
          <internalNodes>
            0 -1 570 1.3847039081156254e-03</internalNodes>
          <leafValues>
            8.8122636079788208e-02 -7.0704638957977295e-01</leafValues></_>
        <_>
          <internalNodes>
            0 -1 321 -2.8257811209186912e-04</internalNodes>
          <leafValues>
            7.6241207122802734e-01 -9.2316627502441406e-02</leafValues></_>
        <_>
          <internalNodes>
            0 -1 121 4.5962359756231308e-02</internalNodes>
          <leafValues>
            -7.5303100049495697e-02 6.3832086324691772e-01</leafValues></_>
        <_>
          <internalNodes>
            0 -1 487 -2.3249334481079131e-04</internalNodes>
          <leafValues>
            5.2110844850540161e-01 -9.7014442086219788e-02</leafValues></_>
        <_>
          <internalNodes>
            0 -1 539 -4.9916328862309456e-04</internalNodes>
          <leafValues>
            -6.6149646043777466e-01 8.6816675961017609e-02</leafValues></_>
        <_>
          <internalNodes>
            0 -1 334 8.6369586642831564e-04</internalNodes>
          <leafValues>
            -1.6237843036651611e-01 3.8155013322830200e-01</leafValues></_>
        <_>
          <internalNodes>
            0 -1 67 8.8274209701921791e-06</internalNodes>
          <leafValues>
            -2.7939951419830322e-01 2.1298384666442871e-01</leafValues></_>
        <_>
          <internalNodes>
            0 -1 462 -1.9652475020848215e-04</internalNodes>
          <leafValues>
            2.9624941945075989e-01 -1.9747723639011383e-01</leafValues></_>
        <_>
          <internalNodes>
            0 -1 350 -5.3763997129863128e-05</internalNodes>
          <leafValues>
            -5.2824860811233521e-01 1.0963153839111328e-01</leafValues></_>
        <_>
          <internalNodes>
            0 -1 522 1.5261908629327081e-05</internalNodes>
          <leafValues>
            -2.1898385882377625e-01 2.5987610220909119e-01</leafValues></_>
        <_>
          <internalNodes>
            0 -1 348 -3.4559117630124092e-03</internalNodes>
          <leafValues>
            4.3518841266632080e-01 -1.3676093518733978e-01</leafValues></_>
        <_>
          <internalNodes>
            0 -1 603 -1.0985352564603090e-03</internalNodes>
          <leafValues>
            -4.5164385437965393e-01 1.3067351281642914e-01</leafValues></_>
        <_>
          <internalNodes>
            0 -1 144 -3.5735336132347584e-04</internalNodes>
          <leafValues>
            2.8233245015144348e-01 -2.2241988778114319e-01</leafValues></_>
        <_>
          <internalNodes>
            0 -1 57 -7.0961814344627783e-06</internalNodes>
          <leafValues>
            -2.9610052704811096e-01 1.9962505996227264e-01</leafValues></_>
        <_>
          <internalNodes>
            0 -1 592 -1.2805253500118852e-03</internalNodes>
          <leafValues>
            -7.1649110317230225e-01 8.3157204091548920e-02</leafValues></_></weakClassifiers></_>
    <!-- stage 9 -->
    <_>
      <maxWeakCount>37</maxWeakCount>
      <stageThreshold>-1.0492461919784546e+00</stageThreshold>
      <weakClassifiers>
        <_>
          <internalNodes>
            0 -1 559 -2.2885977523401380e-04</internalNodes>
          <leafValues>
            -3.4519574046134949e-01 3.7680059671401978e-01</leafValues></_>
        <_>
          <internalNodes>
            0 -1 95 4.6462155296467245e-05</internalNodes>
          <leafValues>
            1.5491430461406708e-01 -4.8433157801628113e-01</leafValues></_>
        <_>
          <internalNodes>
            0 -1 478 2.3060642182826996e-02</internalNodes>
          <leafValues>
            -1.3652639091014862e-01 4.8047873377799988e-01</leafValues></_>
        <_>
          <internalNodes>
            0 -1 532 1.9500319467624649e-05</internalNodes>
          <leafValues>
            1.2398432940244675e-01 -4.6188712120056152e-01</leafValues></_>
        <_>
          <internalNodes>
            0 -1 131 -6.3113700598478317e-03</internalNodes>
          <leafValues>
            5.5652529001235962e-01 -1.1319816857576370e-01</leafValues></_>
        <_>
          <internalNodes>
            0 -1 84 7.9613234847784042e-03</internalNodes>
          <leafValues>
            -2.4630084633827209e-01 3.8363805413246155e-01</leafValues></_>
        <_>
          <internalNodes>
            0 -1 338 1.5903927385807037e-02</internalNodes>
          <leafValues>
            -1.6938719153404236e-01 4.1383835673332214e-01</leafValues></_>
        <_>
          <internalNodes>
            0 -1 234 -8.3006657660007477e-03</internalNodes>
          <leafValues>
            3.4196281433105469e-01 -1.5229515731334686e-01</leafValues></_>
        <_>
          <internalNodes>
            0 -1 22 -1.4347678516060114e-03</internalNodes>
          <leafValues>
            -5.1532971858978271e-01 1.0926027595996857e-01</leafValues></_>
        <_>
          <internalNodes>
            0 -1 299 2.3107134620659053e-04</internalNodes>
          <leafValues>
            -8.8016875088214874e-02 6.5543854236602783e-01</leafValues></_>
        <_>
          <internalNodes>
            0 -1 582 -6.3247920479625463e-05</internalNodes>
          <leafValues>
            -4.4666761159896851e-01 1.3130323588848114e-01</leafValues></_>
        <_>
          <internalNodes>
            0 -1 26 -2.9565957374870777e-03</internalNodes>
          <leafValues>
            -5.8191835880279541e-01 9.6730820834636688e-02</leafValues></_>
        <_>
          <internalNodes>
            0 -1 418 -2.5417213328182697e-04</internalNodes>
          <leafValues>
            6.4264607429504395e-01 -9.7990214824676514e-02</leafValues></_>
        <_>
          <internalNodes>
            0 -1 54 -2.9180981218814850e-03</internalNodes>
          <leafValues>
            3.6557230353355408e-01 -1.4110079407691956e-01</leafValues></_>
        <_>
          <internalNodes>
            0 -1 47 3.7826485931873322e-02</internalNodes>
          <leafValues>
            -1.6474615037441254e-01 3.7423706054687500e-01</leafValues></_>
        <_>
          <internalNodes>
            0 -1 601 -3.9445294532924891e-04</internalNodes>
          <leafValues>
            -4.0079748630523682e-01 1.6027952730655670e-01</leafValues></_>
        <_>
          <internalNodes>
            0 -1 167 -2.4644830264151096e-03</internalNodes>
          <leafValues>
            2.8242000937461853e-01 -2.0778580009937286e-01</leafValues></_>
        <_>
          <internalNodes>
            0 -1 245 4.4068675488233566e-03</internalNodes>
          <leafValues>
            -1.1803478747606277e-01 4.5903044939041138e-01</leafValues></_>
        <_>
          <internalNodes>
            0 -1 364 7.1358401328325272e-04</internalNodes>
          <leafValues>
            -1.2202221900224686e-01 5.0176912546157837e-01</leafValues></_>
        <_>
          <internalNodes>
            0 -1 429 3.4964583814144135e-02</internalNodes>
          <leafValues>
            -1.0217297077178955e-01 5.2462983131408691e-01</leafValues></_>
        <_>
          <internalNodes>
            0 -1 93 -1.5010256902314723e-04</internalNodes>
          <leafValues>
            -4.2158585786819458e-01 1.4701420068740845e-01</leafValues></_>
        <_>
          <internalNodes>
            0 -1 586 -1.9641895778477192e-03</internalNodes>
          <leafValues>
            -4.5375967025756836e-01 1.2700571119785309e-01</leafValues></_>
        <_>
          <internalNodes>
            0 -1 519 -1.4226241037249565e-02</internalNodes>
          <leafValues>
            3.4247854351997375e-01 -1.6709090769290924e-01</leafValues></_>
        <_>
          <internalNodes>
            0 -1 242 4.0110351983457804e-04</internalNodes>
          <leafValues>
            -1.3398969173431396e-01 4.1748958826065063e-01</leafValues></_>
        <_>
          <internalNodes>
            0 -1 142 4.8888556659221649e-02</internalNodes>
          <leafValues>
            -1.1461169272661209e-01 5.2755761146545410e-01</leafValues></_>
        <_>
          <internalNodes>
            0 -1 613 -1.9800788140855730e-04</internalNodes>
          <leafValues>
            -5.6760472059249878e-01 1.1039723455905914e-01</leafValues></_>
        <_>
          <internalNodes>
            0 -1 332 3.0147645156830549e-04</internalNodes>
          <leafValues>
            -9.8060026764869690e-02 6.2541514635086060e-01</leafValues></_>
        <_>
          <internalNodes>
            0 -1 219 5.2317520603537560e-03</internalNodes>
          <leafValues>
            -1.4538013935089111e-01 3.9417257905006409e-01</leafValues></_>
        <_>
          <internalNodes>
            0 -1 187 -5.0179631216451526e-05</internalNodes>
          <leafValues>
            -4.5894718170166016e-01 1.2910281121730804e-01</leafValues></_>
        <_>
          <internalNodes>
            0 -1 509 8.6788838962092996e-04</internalNodes>
          <leafValues>
            -1.7369048297405243e-01 3.7119376659393311e-01</leafValues></_>
        <_>
          <internalNodes>
            0 -1 322 4.7628144966438413e-04</internalNodes>
          <leafValues>
            -1.3467955589294434e-01 4.3764075636863708e-01</leafValues></_>
        <_>
          <internalNodes>
            0 -1 196 1.1043798178434372e-02</internalNodes>
          <leafValues>
            -1.3920824229717255e-01 4.6085625886917114e-01</leafValues></_>
        <_>
          <internalNodes>
            0 -1 132 -1.6092713922262192e-03</internalNodes>
          <leafValues>
            4.0091362595558167e-01 -1.5370468795299530e-01</leafValues></_>
        <_>
          <internalNodes>
            0 -1 106 5.4214364354265854e-05</internalNodes>
          <leafValues>
            1.5843825042247772e-01 -4.4354683160781860e-01</leafValues></_>
        <_>
          <internalNodes>
            0 -1 450 3.7347002944443375e-05</internalNodes>
          <leafValues>
            1.3992567360401154e-01 -4.2044213414192200e-01</leafValues></_>
        <_>
          <internalNodes>
            0 -1 133 -2.1738293580710888e-03</internalNodes>
          <leafValues>
            3.0290746688842773e-01 -2.0978294312953949e-01</leafValues></_>
        <_>
          <internalNodes>
            0 -1 215 2.3720128228887916e-04</internalNodes>
          <leafValues>
            -8.6990602314472198e-02 6.8375086784362793e-01</leafValues></_></weakClassifiers></_>
    <!-- stage 10 -->
    <_>
      <maxWeakCount>26</maxWeakCount>
      <stageThreshold>-9.5053780078887939e-01</stageThreshold>
      <weakClassifiers>
        <_>
          <internalNodes>
            0 -1 532 -3.0508839699905366e-05</internalNodes>
          <leafValues>
            -3.8285714387893677e-01 4.2719998955726624e-01</leafValues></_>
        <_>
          <internalNodes>
            0 -1 114 -5.5971206165850163e-05</internalNodes>
          <leafValues>
            -5.1837581396102905e-01 1.9528552889823914e-01</leafValues></_>
        <_>
          <internalNodes>
            0 -1 443 7.9590082168579102e-02</internalNodes>
          <leafValues>
            -1.2671153247356415e-01 6.4072626829147339e-01</leafValues></_>
        <_>
          <internalNodes>
            0 -1 48 -1.2407610483933240e-04</internalNodes>
          <leafValues>
            -4.1943022608757019e-01 1.7868103086948395e-01</leafValues></_>
        <_>
          <internalNodes>
            0 -1 66 -9.3147304141893983e-04</internalNodes>
          <leafValues>
            -4.6818020939826965e-01 1.3763372600078583e-01</leafValues></_>
        <_>
          <internalNodes>
            0 -1 33 -1.5381397679448128e-04</internalNodes>
          <leafValues>
            -4.9207541346549988e-01 9.7853340208530426e-02</leafValues></_>
        <_>
          <internalNodes>
            0 -1 602 1.1721258051693439e-03</internalNodes>
          <leafValues>
            1.1711045354604721e-01 -5.2836006879806519e-01</leafValues></_>
        <_>
          <internalNodes>
            0 -1 349 -1.0917568579316139e-03</internalNodes>
          <leafValues>
            4.2831835150718689e-01 -1.5432646870613098e-01</leafValues></_>
        <_>
          <internalNodes>
            0 -1 36 -1.8414384685456753e-03</internalNodes>
          <leafValues>
            -6.5860432386398315e-01 8.7177142500877380e-02</leafValues></_>
        <_>
          <internalNodes>
            0 -1 473 -1.0851318947970867e-03</internalNodes>
          <leafValues>
            3.2747265696525574e-01 -1.7378582060337067e-01</leafValues></_>
        <_>
          <internalNodes>
            0 -1 548 4.7131808241829276e-04</internalNodes>
          <leafValues>
            7.5661025941371918e-02 -7.1184003353118896e-01</leafValues></_>
        <_>
          <internalNodes>
            0 -1 101 3.6270741373300552e-02</internalNodes>
          <leafValues>
            -1.1397444456815720e-01 5.3297460079193115e-01</leafValues></_>
        <_>
          <internalNodes>
            0 -1 296 -1.3233316130936146e-03</internalNodes>
          <leafValues>
            3.3339139819145203e-01 -1.5401871502399445e-01</leafValues></_>
        <_>
          <internalNodes>
            0 -1 396 6.7423097789287567e-04</internalNodes>
          <leafValues>
            -1.3746972382068634e-01 3.9914402365684509e-01</leafValues></_>
        <_>
          <internalNodes>
            0 -1 89 1.2205005623400211e-03</internalNodes>
          <leafValues>
            1.1251830309629440e-01 -5.5232608318328857e-01</leafValues></_>
        <_>
          <internalNodes>
            0 -1 536 3.0196162697393447e-05</internalNodes>
          <leafValues>
            1.4039282500743866e-01 -4.1493591666221619e-01</leafValues></_>
        <_>
          <internalNodes>
            0 -1 445 5.1789907738566399e-03</internalNodes>
          <leafValues>
            -1.7255470156669617e-01 3.2467302680015564e-01</leafValues></_>
        <_>
          <internalNodes>
            0 -1 439 -2.0203636959195137e-03</internalNodes>
          <leafValues>
            3.6096847057342529e-01 -1.9466024637222290e-01</leafValues></_>
        <_>
          <internalNodes>
            0 -1 415 4.9493415281176567e-03</internalNodes>
          <leafValues>
            -1.5933723747730255e-01 3.5170018672943115e-01</leafValues></_>
        <_>
          <internalNodes>
            0 -1 189 -9.8579130280995741e-06</internalNodes>
          <leafValues>
            -2.7734431624412537e-01 2.1861104667186737e-01</leafValues></_>
        <_>
          <internalNodes>
            0 -1 600 -1.9876695296261460e-04</internalNodes>
          <leafValues>
            -5.3486257791519165e-01 1.0071559250354767e-01</leafValues></_>
        <_>
          <internalNodes>
            0 -1 447 -8.9176231995224953e-04</internalNodes>
          <leafValues>
            3.5173296928405762e-01 -1.7184409499168396e-01</leafValues></_>
        <_>
          <internalNodes>
            0 -1 212 1.2609766563400626e-03</internalNodes>
          <leafValues>
            -8.9821428060531616e-02 5.7859212160110474e-01</leafValues></_>
        <_>
          <internalNodes>
            0 -1 91 -7.2670876979827881e-02</internalNodes>
          <leafValues>
            4.4962522387504578e-01 -1.1980308592319489e-01</leafValues></_>
        <_>
          <internalNodes>
            0 -1 17 3.4251436591148376e-02</internalNodes>
          <leafValues>
            -7.5513832271099091e-02 6.5631502866744995e-01</leafValues></_>
        <_>
          <internalNodes>
            0 -1 86 -1.3078296557068825e-02</internalNodes>
          <leafValues>
            4.1899415850639343e-01 -1.4440479874610901e-01</leafValues></_></weakClassifiers></_>
    <!-- stage 11 -->
    <_>
      <maxWeakCount>34</maxWeakCount>
      <stageThreshold>-8.5562086105346680e-01</stageThreshold>
      <weakClassifiers>
        <_>
          <internalNodes>
            0 -1 72 -3.8482530508190393e-03</internalNodes>
          <leafValues>
            6.3431149721145630e-01 1.0285220295190811e-01</leafValues></_>
        <_>
          <internalNodes>
            0 -1 560 -5.0380433094687760e-05</internalNodes>
          <leafValues>
            -4.0711572766304016e-01 1.5379780530929565e-01</leafValues></_>
        <_>
          <internalNodes>
            0 -1 370 -4.6179938362911344e-04</internalNodes>
          <leafValues>
            5.8166289329528809e-01 -9.1032229363918304e-02</leafValues></_>
        <_>
          <internalNodes>
            0 -1 369 4.4759723823517561e-04</internalNodes>
          <leafValues>
            -1.1987088620662689e-01 6.9120812416076660e-01</leafValues></_>
        <_>
          <internalNodes>
            0 -1 166 1.5130454301834106e-01</internalNodes>
          <leafValues>
            1.0832095891237259e-01 -5.8720296621322632e-01</leafValues></_>
        <_>
          <internalNodes>
            0 -1 461 1.5870191156864166e-02</internalNodes>
          <leafValues>
            -1.1105659604072571e-01 5.3071159124374390e-01</leafValues></_>
        <_>
          <internalNodes>
            0 -1 459 -8.7956674396991730e-03</internalNodes>
          <leafValues>
            3.5499590635299683e-01 -1.4621354639530182e-01</leafValues></_>
        <_>
          <internalNodes>
            0 -1 10 -2.2786813133279793e-05</internalNodes>
          <leafValues>
            -5.1734703779220581e-01 9.8915316164493561e-02</leafValues></_>
        <_>
          <internalNodes>
            0 -1 284 -9.6092489548027515e-04</internalNodes>
          <leafValues>
            3.9750096201896667e-01 -1.2771716713905334e-01</leafValues></_>
        <_>
          <internalNodes>
            0 -1 500 -1.0992523311870173e-04</internalNodes>
          <leafValues>
            3.0044564604759216e-01 -2.2390349209308624e-01</leafValues></_>
        <_>
          <internalNodes>
            0 -1 74 8.1167707685381174e-04</internalNodes>
          <leafValues>
            1.0538057982921600e-01 -5.1599413156509399e-01</leafValues></_>
        <_>
          <internalNodes>
            0 -1 503 -5.4219136945903301e-03</internalNodes>
          <leafValues>
            4.2127805948257446e-01 -1.3716286420822144e-01</leafValues></_>
        <_>
          <internalNodes>
            0 -1 188 -9.0137142688035965e-03</internalNodes>
          <leafValues>
            4.3833038210868835e-01 -1.3797052204608917e-01</leafValues></_>
        <_>
          <internalNodes>
            0 -1 405 1.2508059153333306e-03</internalNodes>
          <leafValues>
            -1.6511654853820801e-01 3.3391577005386353e-01</leafValues></_>
        <_>
          <internalNodes>
            0 -1 535 4.1299717850051820e-05</internalNodes>
          <leafValues>
            1.3184738159179688e-01 -4.6043917536735535e-01</leafValues></_>
        <_>
          <internalNodes>
            0 -1 451 1.5626142267137766e-03</internalNodes>
          <leafValues>
            -1.9431389868259430e-01 3.0822664499282837e-01</leafValues></_>
        <_>
          <internalNodes>
            0 -1 354 2.7840369148179889e-04</internalNodes>
          <leafValues>
            -8.9738726615905762e-02 5.7605725526809692e-01</leafValues></_>
        <_>
          <internalNodes>
            0 -1 209 2.5266839656978846e-04</internalNodes>
          <leafValues>
            -8.2372084259986877e-02 6.0801279544830322e-01</leafValues></_>
        <_>
          <internalNodes>
            0 -1 562 -2.5719380937516689e-04</internalNodes>
          <leafValues>
            -5.5730688571929932e-01 1.0916616767644882e-01</leafValues></_>
        <_>
          <internalNodes>
            0 -1 108 -1.1520339176058769e-02</internalNodes>
          <leafValues>
            4.5251739025115967e-01 -1.3560119271278381e-01</leafValues></_>
        <_>
          <internalNodes>
            0 -1 99 8.7995296344161034e-03</internalNodes>
          <leafValues>
            -1.8317060172557831e-01 3.9268422126770020e-01</leafValues></_>
        <_>
          <internalNodes>
            0 -1 547 -9.8134241852676496e-06</internalNodes>
          <leafValues>
            2.1246470510959625e-01 -2.3675575852394104e-01</leafValues></_>
        <_>
          <internalNodes>
            0 -1 204 1.1647239327430725e-02</internalNodes>
          <leafValues>
            -1.1091474443674088e-01 4.8474532365798950e-01</leafValues></_>
        <_>
          <internalNodes>
            0 -1 94 2.9384130612015724e-03</internalNodes>
          <leafValues>
            8.4091268479824066e-02 -6.6767394542694092e-01</leafValues></_>
        <_>
          <internalNodes>
            0 -1 278 -4.5744460076093674e-03</internalNodes>
          <leafValues>
            4.7005209326744080e-01 -1.2444040179252625e-01</leafValues></_>
        <_>
          <internalNodes>
            0 -1 355 2.3572001373395324e-04</internalNodes>
          <leafValues>
            -9.2962481081485748e-02 5.3356009721755981e-01</leafValues></_>
        <_>
          <internalNodes>
            0 -1 393 5.9772282838821411e-04</internalNodes>
          <leafValues>
            -1.8097248673439026e-01 2.8058183193206787e-01</leafValues></_>
        <_>
          <internalNodes>
            0 -1 555 2.0310226827859879e-03</internalNodes>
          <leafValues>
            1.0945598781108856e-01 -4.9291828274726868e-01</leafValues></_>
        <_>
          <internalNodes>
            0 -1 466 -2.3082982748746872e-02</internalNodes>
          <leafValues>
            5.5523860454559326e-01 -1.0484393686056137e-01</leafValues></_>
        <_>
          <internalNodes>
            0 -1 456 1.3702763244509697e-02</internalNodes>
          <leafValues>
            -1.7917929589748383e-01 2.9404556751251221e-01</leafValues></_>
        <_>
          <internalNodes>
            0 -1 261 4.8440612852573395e-02</internalNodes>
          <leafValues>
            -1.0804418474435806e-01 4.8308560252189636e-01</leafValues></_>
        <_>
          <internalNodes>
            0 -1 237 6.5761909354478121e-04</internalNodes>
          <leafValues>
            -1.7936733365058899e-01 3.0694863200187683e-01</leafValues></_>
        <_>
          <internalNodes>
            0 -1 587 -1.3249044059193693e-05</internalNodes>
          <leafValues>
            -3.4469571709632874e-01 1.6176988184452057e-01</leafValues></_>
        <_>
          <internalNodes>
            0 -1 233 -7.0762494578957558e-03</internalNodes>
          <leafValues>
            2.7544403076171875e-01 -1.9524328410625458e-01</leafValues></_></weakClassifiers></_>
    <!-- stage 12 -->
    <_>
      <maxWeakCount>36</maxWeakCount>
      <stageThreshold>-8.7883287668228149e-01</stageThreshold>
      <weakClassifiers>
        <_>
          <internalNodes>
            0 -1 34 -1.8072471721097827e-04</internalNodes>
          <leafValues>
            -2.5291827321052551e-01 3.4623977541923523e-01</leafValues></_>
        <_>
          <internalNodes>
            0 -1 273 -1.4781155623495579e-03</internalNodes>
          <leafValues>
            7.2865587472915649e-01 -6.6421531140804291e-02</leafValues></_>
        <_>
          <internalNodes>
            0 -1 442 8.9700296521186829e-03</internalNodes>
          <leafValues>
            -1.2324581295251846e-01 4.9492260813713074e-01</leafValues></_>
        <_>
          <internalNodes>
            0 -1 32 7.4745109304785728e-04</internalNodes>
          <leafValues>
            1.6228440403938293e-01 -3.4944060444831848e-01</leafValues></_>
        <_>
          <internalNodes>
            0 -1 530 2.0831741858273745e-03</internalNodes>
          <leafValues>
            8.5418708622455597e-02 -6.2754762172698975e-01</leafValues></_>
        <_>
          <internalNodes>
            0 -1 424 6.1086157802492380e-04</internalNodes>
          <leafValues>
            -9.0794786810874939e-02 5.8147615194320679e-01</leafValues></_>
        <_>
          <internalNodes>
            0 -1 218 7.1936650201678276e-03</internalNodes>
          <leafValues>
            -1.0452193021774292e-01 4.3305164575576782e-01</leafValues></_>
        <_>
          <internalNodes>
            0 -1 111 5.2577663154806942e-05</internalNodes>
          <leafValues>
            1.2884798645973206e-01 -3.8887301087379456e-01</leafValues></_>
        <_>
          <internalNodes>
            0 -1 380 3.6989257205277681e-04</internalNodes>
          <leafValues>
            -1.4765536785125732e-01 3.4656426310539246e-01</leafValues></_>
        <_>
          <internalNodes>
            0 -1 157 -2.9566902667284012e-03</internalNodes>
          <leafValues>
            2.6697060465812683e-01 -1.6522260010242462e-01</leafValues></_>
        <_>
          <internalNodes>
            0 -1 494 -1.0312689468264580e-02</internalNodes>
          <leafValues>
            3.8308903574943542e-01 -1.2229357659816742e-01</leafValues></_>
        <_>
          <internalNodes>
            0 -1 294 -5.8538266457617283e-03</internalNodes>
          <leafValues>
            3.3747461438179016e-01 -1.3559268414974213e-01</leafValues></_>
        <_>
          <internalNodes>
            0 -1 275 6.4105524870683439e-06</internalNodes>
          <leafValues>
            1.8648244440555573e-01 -2.6208767294883728e-01</leafValues></_>
        <_>
          <internalNodes>
            0 -1 335 5.4177368292585015e-04</internalNodes>
          <leafValues>
            -5.8551199734210968e-02 7.7836275100708008e-01</leafValues></_>
        <_>
          <internalNodes>
            0 -1 1 4.7668945626355708e-06</internalNodes>
          <leafValues>
            -2.6610237360000610e-01 1.8644890189170837e-01</leafValues></_>
        <_>
          <internalNodes>
            0 -1 149 3.8296298589557409e-04</internalNodes>
          <leafValues>
            -1.2556302547454834e-01 3.6731806397438049e-01</leafValues></_>
        <_>
          <internalNodes>
            0 -1 567 1.9109745044261217e-03</internalNodes>
          <leafValues>
            1.1338283121585846e-01 -4.4865104556083679e-01</leafValues></_>
        <_>
          <internalNodes>
            0 -1 580 -5.6485319510102272e-04</internalNodes>
          <leafValues>
            -4.9926924705505371e-01 9.0176030993461609e-02</leafValues></_>
        <_>
          <internalNodes>
            0 -1 507 6.4422637224197388e-03</internalNodes>
          <leafValues>
            -1.3058389723300934e-01 3.8160151243209839e-01</leafValues></_>
        <_>
          <internalNodes>
            0 -1 122 -3.5167844034731388e-03</internalNodes>
          <leafValues>
            -5.6203687191009521e-01 9.1750718653202057e-02</leafValues></_>
        <_>
          <internalNodes>
            0 -1 425 -1.1092016939073801e-03</internalNodes>
          <leafValues>
            4.5684576034545898e-01 -1.0713714361190796e-01</leafValues></_>
        <_>
          <internalNodes>
            0 -1 153 8.6338054388761520e-03</internalNodes>
          <leafValues>
            -1.3351775705814362e-01 3.2626858353614807e-01</leafValues></_>
        <_>
          <internalNodes>
            0 -1 389 -3.6495091626420617e-04</internalNodes>
          <leafValues>
            7.2129678726196289e-01 -5.9327345341444016e-02</leafValues></_>
        <_>
          <internalNodes>
            0 -1 232 1.9492003048071638e-05</internalNodes>
          <leafValues>
            1.1648503690958023e-01 -4.2404213547706604e-01</leafValues></_>
        <_>
          <internalNodes>
            0 -1 377 1.2676769401878119e-03</internalNodes>
          <leafValues>
            -1.8402415513992310e-01 2.6734441518783569e-01</leafValues></_>
        <_>
          <internalNodes>
            0 -1 100 5.4570496082305908e-02</internalNodes>
          <leafValues>
            7.5062923133373260e-02 -6.4811307191848755e-01</leafValues></_>
        <_>
          <internalNodes>
            0 -1 283 1.9184576813131571e-03</internalNodes>
          <leafValues>
            -1.4755159616470337e-01 3.3748233318328857e-01</leafValues></_>
        <_>
          <internalNodes>
            0 -1 258 -1.3888932764530182e-02</internalNodes>
          <leafValues>
            -5.1081538200378418e-01 9.4028159976005554e-02</leafValues></_>
        <_>
          <internalNodes>
            0 -1 56 -3.3957685809582472e-03</internalNodes>
          <leafValues>
            -5.8948874473571777e-01 8.3774127066135406e-02</leafValues></_>
        <_>
          <internalNodes>
            0 -1 289 -8.5048661276232451e-05</internalNodes>
          <leafValues>
            2.6725259423255920e-01 -2.1496649086475372e-01</leafValues></_>
        <_>
          <internalNodes>
            0 -1 269 -1.0095139965415001e-02</internalNodes>
          <leafValues>
            4.5947724580764771e-01 -1.0233034193515778e-01</leafValues></_>
        <_>
          <internalNodes>
            0 -1 432 6.0220821760594845e-03</internalNodes>
          <leafValues>
            -1.2783984839916229e-01 3.7471851706504822e-01</leafValues></_>
        <_>
          <internalNodes>
            0 -1 412 -5.5548036471009254e-03</internalNodes>
          <leafValues>
            -5.5788242816925049e-01 8.5549704730510712e-02</leafValues></_>
        <_>
          <internalNodes>
            0 -1 173 -3.0834962672088295e-05</internalNodes>
          <leafValues>
            -2.8874397277832031e-01 1.5526053309440613e-01</leafValues></_>
        <_>
          <internalNodes>
            0 -1 211 7.3461188003420830e-03</internalNodes>
          <leafValues>
            -1.0358584672212601e-01 4.7621741890907288e-01</leafValues></_>
        <_>
          <internalNodes>
            0 -1 566 4.4712680391967297e-05</internalNodes>
          <leafValues>
            1.7150266468524933e-01 -2.7858832478523254e-01</leafValues></_></weakClassifiers></_>
    <!-- stage 13 -->
    <_>
      <maxWeakCount>39</maxWeakCount>
      <stageThreshold>-8.1198942661285400e-01</stageThreshold>
      <weakClassifiers>
        <_>
          <internalNodes>
            0 -1 103 -3.2863177359104156e-02</internalNodes>
          <leafValues>
            6.4516127109527588e-01 1.3029316067695618e-01</leafValues></_>
        <_>
          <internalNodes>
            0 -1 63 4.2917072278214619e-06</internalNodes>
          <leafValues>
            -2.4753199517726898e-01 2.0072948932647705e-01</leafValues></_>
        <_>
          <internalNodes>
            0 -1 596 1.7163092707050964e-06</internalNodes>
          <leafValues>
            -2.0072720944881439e-01 2.0630674064159393e-01</leafValues></_>
        <_>
          <internalNodes>
            0 -1 264 7.8294810373336077e-04</internalNodes>
          <leafValues>
            -1.4493070542812347e-01 3.4181708097457886e-01</leafValues></_>
        <_>
          <internalNodes>
            0 -1 259 -1.4941892586648464e-02</internalNodes>
          <leafValues>
            4.5081749558448792e-01 -9.9019668996334076e-02</leafValues></_>
        <_>
          <internalNodes>
            0 -1 2 -1.4852138701826334e-04</internalNodes>
          <leafValues>
            -5.0493443012237549e-01 1.0414319485425949e-01</leafValues></_>
        <_>
          <internalNodes>
            0 -1 115 5.3301498293876648e-02</internalNodes>
          <leafValues>
            -1.1807483434677124e-01 4.7751387953758240e-01</leafValues></_>
        <_>
          <internalNodes>
            0 -1 416 2.0854944363236427e-02</internalNodes>
          <leafValues>
            -1.1489742249250412e-01 3.4815117716789246e-01</leafValues></_>
        <_>
          <internalNodes>
            0 -1 542 2.7311813028063625e-05</internalNodes>
          <leafValues>
            1.4773599803447723e-01 -3.2193174958229065e-01</leafValues></_>
        <_>
          <internalNodes>
            0 -1 191 -1.2841050513088703e-02</internalNodes>
          <leafValues>
            4.6614795923233032e-01 -9.0300664305686951e-02</leafValues></_>
        <_>
          <internalNodes>
            0 -1 438 7.6902977889403701e-04</internalNodes>
          <leafValues>
            -7.2750255465507507e-02 7.0961630344390869e-01</leafValues></_>
        <_>
          <internalNodes>
            0 -1 388 -4.2453987407498062e-04</internalNodes>
          <leafValues>
            6.1134815216064453e-01 -5.3384356200695038e-02</leafValues></_>
        <_>
          <internalNodes>
            0 -1 129 1.3789046555757523e-02</internalNodes>
          <leafValues>
            -1.1138042062520981e-01 4.0704968571662903e-01</leafValues></_>
        <_>
          <internalNodes>
            0 -1 495 -7.6365342829376459e-04</internalNodes>
          <leafValues>
            3.6585903167724609e-01 -1.2705880403518677e-01</leafValues></_>
        <_>
          <internalNodes>
            0 -1 311 3.3348158467561007e-04</internalNodes>
          <leafValues>
            -6.0984950512647629e-02 6.5685349702835083e-01</leafValues></_>
        <_>
          <internalNodes>
            0 -1 73 1.0240376286674291e-04</internalNodes>
          <leafValues>
            1.3218952715396881e-01 -4.0085050463676453e-01</leafValues></_>
        <_>
          <internalNodes>
            0 -1 529 -1.2932167388498783e-02</internalNodes>
          <leafValues>
            5.0654876232147217e-01 -8.8032342493534088e-02</leafValues></_>
        <_>
          <internalNodes>
            0 -1 75 6.9712303578853607e-02</internalNodes>
          <leafValues>
            -9.5051787793636322e-02 4.3769466876983643e-01</leafValues></_>
        <_>
          <internalNodes>
            0 -1 323 5.9009686810895801e-04</internalNodes>
          <leafValues>
            -6.4792111515998840e-02 5.5726540088653564e-01</leafValues></_>
        <_>
          <internalNodes>
            0 -1 7 3.2684498000890017e-04</internalNodes>
          <leafValues>
            7.7010042965412140e-02 -6.0168856382369995e-01</leafValues></_>
        <_>
          <internalNodes>
            0 -1 145 -2.9328821692615747e-03</internalNodes>
          <leafValues>
            3.8621088862419128e-01 -1.1390928924083710e-01</leafValues></_>
        <_>
          <internalNodes>
            0 -1 138 2.3853029124438763e-03</internalNodes>
          <leafValues>
            -1.2809313833713531e-01 4.0031960606575012e-01</leafValues></_>
        <_>
          <internalNodes>
            0 -1 510 5.0051731523126364e-04</internalNodes>
          <leafValues>
            -8.4822148084640503e-02 4.8807916045188904e-01</leafValues></_>
        <_>
          <internalNodes>
            0 -1 24 -2.7253294829279184e-03</internalNodes>
          <leafValues>
            -4.5366716384887695e-01 1.0571298748254776e-01</leafValues></_>
        <_>
          <internalNodes>
            0 -1 490 6.1245315009728074e-04</internalNodes>
          <leafValues>
            -1.2866003811359406e-01 3.6039778590202332e-01</leafValues></_>
        <_>
          <internalNodes>
            0 -1 4 1.9714830815792084e-01</internalNodes>
          <leafValues>
            1.1604551225900650e-01 -3.8517504930496216e-01</leafValues></_>
        <_>
          <internalNodes>
            0 -1 58 8.7993548731901683e-06</internalNodes>
          <leafValues>
            -2.3178152740001678e-01 1.9942758977413177e-01</leafValues></_>
        <_>
          <internalNodes>
            0 -1 180 1.2471489608287811e-02</internalNodes>
          <leafValues>
            8.1210866570472717e-02 -5.7281780242919922e-01</leafValues></_>
        <_>
          <internalNodes>
            0 -1 55 -8.9763933792710304e-03</internalNodes>
          <leafValues>
            -5.2688038349151611e-01 8.0013796687126160e-02</leafValues></_>
        <_>
          <internalNodes>
            0 -1 295 -6.3366638496518135e-03</internalNodes>
          <leafValues>
            5.0871092081069946e-01 -9.8592661321163177e-02</leafValues></_>
        <_>
          <internalNodes>
            0 -1 246 4.0260660171043128e-05</internalNodes>
          <leafValues>
            1.1755602061748505e-01 -4.2101126909255981e-01</leafValues></_>
        <_>
          <internalNodes>
            0 -1 177 8.9841854060068727e-04</internalNodes>
          <leafValues>
            -1.8319600820541382e-01 2.7273038029670715e-01</leafValues></_>
        <_>
          <internalNodes>
            0 -1 514 -6.4338427037000656e-03</internalNodes>
          <leafValues>
            3.5470420122146606e-01 -1.3396541774272919e-01</leafValues></_>
        <_>
          <internalNodes>
            0 -1 550 -3.3570446248631924e-05</internalNodes>
          <leafValues>
            -3.7724190950393677e-01 1.3301882147789001e-01</leafValues></_>
        <_>
          <internalNodes>
            0 -1 315 1.0421874467283487e-03</internalNodes>
          <leafValues>
            -1.0257346183061600e-01 4.7308370471000671e-01</leafValues></_>
        <_>
          <internalNodes>
            0 -1 492 -7.7589158900082111e-03</internalNodes>
          <leafValues>
            5.2035218477249146e-01 -8.1394523382186890e-02</leafValues></_>
        <_>
          <internalNodes>
            0 -1 175 -4.9339816905558109e-03</internalNodes>
          <leafValues>
            3.1008455157279968e-01 -1.4626871049404144e-01</leafValues></_>
        <_>
          <internalNodes>
            0 -1 96 4.5308624394237995e-03</internalNodes>
          <leafValues>
            -1.5522307157516479e-01 3.0487251281738281e-01</leafValues></_>
        <_>
          <internalNodes>
            0 -1 208 -3.7069077370688319e-04</internalNodes>
          <leafValues>
            3.3033943176269531e-01 -1.4498484134674072e-01</leafValues></_></weakClassifiers></_>
    <!-- stage 14 -->
    <_>
      <maxWeakCount>39</maxWeakCount>
      <stageThreshold>-8.0425548553466797e-01</stageThreshold>
      <weakClassifiers>
        <_>
          <internalNodes>
            0 -1 531 1.9150786101818085e-05</internalNodes>
          <leafValues>
            3.3236151933670044e-01 -2.4561403691768646e-01</leafValues></_>
        <_>
          <internalNodes>
            0 -1 344 -3.3527633058838546e-04</internalNodes>
          <leafValues>
            6.3561272621154785e-01 -5.4402012377977371e-02</leafValues></_>
        <_>
          <internalNodes>
            0 -1 419 -2.4495818070136011e-04</internalNodes>
          <leafValues>
            6.2396401166915894e-01 -9.6437826752662659e-02</leafValues></_>
        <_>
          <internalNodes>
            0 -1 21 -2.2812280803918839e-03</internalNodes>
          <leafValues>
            -7.2748589515686035e-01 7.6307378709316254e-02</leafValues></_>
        <_>
          <internalNodes>
            0 -1 16 2.1932311356067657e-03</internalNodes>
          <leafValues>
            9.7524687647819519e-02 -4.5682618021965027e-01</leafValues></_>
        <_>
          <internalNodes>
            0 -1 540 -2.0620430586859584e-04</internalNodes>
          <leafValues>
            2.5180256366729736e-01 -1.6157123446464539e-01</leafValues></_>
        <_>
          <internalNodes>
            0 -1 365 -1.1627539992332458e-02</internalNodes>
          <leafValues>
            5.4951256513595581e-01 -8.0556839704513550e-02</leafValues></_>
        <_>
          <internalNodes>
            0 -1 303 4.8454909119755030e-04</internalNodes>
          <leafValues>
            -9.5935136079788208e-02 4.4536048173904419e-01</leafValues></_>
        <_>
          <internalNodes>
            0 -1 608 9.0692610683618113e-06</internalNodes>
          <leafValues>
            1.3180775940418243e-01 -3.5074383020401001e-01</leafValues></_>
        <_>
          <internalNodes>
            0 -1 281 -1.2675330042839050e-02</internalNodes>
          <leafValues>
            4.2204254865646362e-01 -1.1004891991615295e-01</leafValues></_>
        <_>
          <internalNodes>
            0 -1 341 2.6357185561209917e-04</internalNodes>
          <leafValues>
            -9.0730585157871246e-02 4.9282336235046387e-01</leafValues></_>
        <_>
          <internalNodes>
            0 -1 128 7.4935327284038067e-03</internalNodes>
          <leafValues>
            -9.8843052983283997e-02 3.6955365538597107e-01</leafValues></_>
        <_>
          <internalNodes>
            0 -1 120 -4.1285213083028793e-03</internalNodes>
          <leafValues>
            2.7696070075035095e-01 -1.4809417724609375e-01</leafValues></_>
        <_>
          <internalNodes>
            0 -1 392 -4.9779948312789202e-04</internalNodes>
          <leafValues>
            5.5362594127655029e-01 -8.2092620432376862e-02</leafValues></_>
        <_>
          <internalNodes>
            0 -1 164 8.5067600011825562e-03</internalNodes>
          <leafValues>
            -8.6076125502586365e-02 4.1365280747413635e-01</leafValues></_>
        <_>
          <internalNodes>
            0 -1 227 -3.6293319426476955e-03</internalNodes>
          <leafValues>
            3.8564151525497437e-01 -9.8833173513412476e-02</leafValues></_>
        <_>
          <internalNodes>
            0 -1 45 8.2606240175664425e-04</internalNodes>
          <leafValues>
            8.5544370114803314e-02 -5.4153805971145630e-01</leafValues></_>
        <_>
          <internalNodes>
            0 -1 472 -6.6262045875191689e-03</internalNodes>
          <leafValues>
            3.5278469324111938e-01 -1.1975926905870438e-01</leafValues></_>
        <_>
          <internalNodes>
            0 -1 508 7.3380526155233383e-03</internalNodes>
          <leafValues>
            -1.1165939271450043e-01 4.4513246417045593e-01</leafValues></_>
        <_>
          <internalNodes>
            0 -1 223 -7.8306987415999174e-04</internalNodes>
          <leafValues>
            3.1222379207611084e-01 -1.3846915960311890e-01</leafValues></_>
        <_>
          <internalNodes>
            0 -1 420 -9.4055176305118948e-06</internalNodes>
          <leafValues>
            -2.9511994123458862e-01 1.6971237957477570e-01</leafValues></_>
        <_>
          <internalNodes>
            0 -1 319 -9.9706393666565418e-04</internalNodes>
          <leafValues>
            7.0804828405380249e-01 -6.2747739255428314e-02</leafValues></_>
        <_>
          <internalNodes>
            0 -1 251 -1.7801597714424133e-02</internalNodes>
          <leafValues>
            -4.7911632061004639e-01 1.0254173725843430e-01</leafValues></_>
        <_>
          <internalNodes>
            0 -1 406 4.3487461516633630e-04</internalNodes>
          <leafValues>
            -1.2274689972400665e-01 3.3540305495262146e-01</leafValues></_>
        <_>
          <internalNodes>
            0 -1 241 -8.2631641998887062e-04</internalNodes>
          <leafValues>
            6.5988492965698242e-01 -6.1545476317405701e-02</leafValues></_>
        <_>
          <internalNodes>
            0 -1 317 3.6559854634106159e-03</internalNodes>
          <leafValues>
            6.3941933214664459e-02 -7.6236456632614136e-01</leafValues></_>
        <_>
          <internalNodes>
            0 -1 496 6.4043980091810226e-04</internalNodes>
          <leafValues>
            -1.5978114306926727e-01 2.8816375136375427e-01</leafValues></_>
        <_>
          <internalNodes>
            0 -1 594 4.8986391630023718e-04</internalNodes>
          <leafValues>
            9.7952947020530701e-02 -4.8967006802558899e-01</leafValues></_>
        <_>
          <internalNodes>
            0 -1 379 2.6887364219874144e-04</internalNodes>
          <leafValues>
            -1.9604335725307465e-01 2.2428476810455322e-01</leafValues></_>
        <_>
          <internalNodes>
            0 -1 318 -1.5931734815239906e-03</internalNodes>
          <leafValues>
            -7.6544237136840820e-01 6.6431231796741486e-02</leafValues></_>
        <_>
          <internalNodes>
            0 -1 310 -6.4113084226846695e-04</internalNodes>
          <leafValues>
            6.7530792951583862e-01 -7.7495820820331573e-02</leafValues></_>
        <_>
          <internalNodes>
            0 -1 528 5.9755379334092140e-04</internalNodes>
          <leafValues>
            1.1687797307968140e-01 -4.0278801321983337e-01</leafValues></_>
        <_>
          <internalNodes>
            0 -1 395 -4.7727706260047853e-04</internalNodes>
          <leafValues>
            2.6196855306625366e-01 -1.7752282321453094e-01</leafValues></_>
        <_>
          <internalNodes>
            0 -1 474 -1.0329578071832657e-02</internalNodes>
          <leafValues>
            6.3709586858749390e-01 -6.8052649497985840e-02</leafValues></_>
        <_>
          <internalNodes>
            0 -1 183 4.8505482263863087e-03</internalNodes>
          <leafValues>
            6.8723447620868683e-02 -7.4342197179794312e-01</leafValues></_>
        <_>
          <internalNodes>
            0 -1 544 -2.7620685286819935e-03</internalNodes>
          <leafValues>
            2.5074702501296997e-01 -1.9090688228607178e-01</leafValues></_>
        <_>
          <internalNodes>
            0 -1 523 -2.7938566636294127e-03</internalNodes>
          <leafValues>
            2.9321515560150146e-01 -1.6811962425708771e-01</leafValues></_>
        <_>
          <internalNodes>
            0 -1 83 4.5543238229583949e-05</internalNodes>
          <leafValues>
            1.3853046298027039e-01 -3.2408738136291504e-01</leafValues></_>
        <_>
          <internalNodes>
            0 -1 127 -6.7288294434547424e-02</internalNodes>
          <leafValues>
            -4.5624524354934692e-01 9.5404371619224548e-02</leafValues></_></weakClassifiers></_>
    <!-- stage 15 -->
    <_>
      <maxWeakCount>42</maxWeakCount>
      <stageThreshold>-8.7584620714187622e-01</stageThreshold>
      <weakClassifiers>
        <_>
          <internalNodes>
            0 -1 15 -7.2955858195200562e-04</internalNodes>
          <leafValues>
            -5.6896549463272095e-01 3.1401616334915161e-01</leafValues></_>
        <_>
          <internalNodes>
            0 -1 30 2.4152399419108406e-05</internalNodes>
          <leafValues>
            1.9079156219959259e-01 -2.7359396219253540e-01</leafValues></_>
        <_>
          <internalNodes>
            0 -1 489 -2.7665351517498493e-03</internalNodes>
          <leafValues>
            5.4890012741088867e-01 -1.1370470374822617e-01</leafValues></_>
        <_>
          <internalNodes>
            0 -1 345 -5.1503663416951895e-04</internalNodes>
          <leafValues>
            4.2581316828727722e-01 -1.3652668893337250e-01</leafValues></_>
        <_>
          <internalNodes>
            0 -1 43 -1.5891608200035989e-04</internalNodes>
          <leafValues>
            -4.8041716217994690e-01 1.0339590907096863e-01</leafValues></_>
        <_>
          <internalNodes>
            0 -1 351 -3.1988867558538914e-03</internalNodes>
          <leafValues>
            4.8816937208175659e-01 -7.5743474066257477e-02</leafValues></_>
        <_>
          <internalNodes>
            0 -1 367 3.3860889379866421e-04</internalNodes>
          <leafValues>
            -6.8916410207748413e-02 6.7867189645767212e-01</leafValues></_>
        <_>
          <internalNodes>
            0 -1 612 -2.0675294217653573e-04</internalNodes>
          <leafValues>
            -4.3096515536308289e-01 1.0505238920450211e-01</leafValues></_>
        <_>
          <internalNodes>
            0 -1 38 -3.0465628951787949e-03</internalNodes>
          <leafValues>
            -5.7424074411392212e-01 7.9000800848007202e-02</leafValues></_>
        <_>
          <internalNodes>
            0 -1 77 7.5169926276430488e-05</internalNodes>
          <leafValues>
            -1.7746680974960327e-01 2.4522963166236877e-01</leafValues></_>
        <_>
          <internalNodes>
            0 -1 104 -1.9189700484275818e-02</internalNodes>
          <leafValues>
            3.6727693676948547e-01 -1.3605986535549164e-01</leafValues></_>
        <_>
          <internalNodes>
            0 -1 119 -4.5147053897380829e-03</internalNodes>
          <leafValues>
            3.2326745986938477e-01 -1.3242772221565247e-01</leafValues></_>
        <_>
          <internalNodes>
            0 -1 192 4.0078246966004372e-03</internalNodes>
          <leafValues>
            -9.0390041470527649e-02 5.3330504894256592e-01</leafValues></_>
        <_>
          <internalNodes>
            0 -1 113 -9.6995390951633453e-02</internalNodes>
          <leafValues>
            5.6896978616714478e-01 -7.4106231331825256e-02</leafValues></_>
        <_>
          <internalNodes>
            0 -1 329 -3.5838413168676198e-05</internalNodes>
          <leafValues>
            -4.4148126244544983e-01 1.0305316746234894e-01</leafValues></_>
        <_>
          <internalNodes>
            0 -1 437 -4.8249782412312925e-04</internalNodes>
          <leafValues>
            6.4356493949890137e-01 -6.9558061659336090e-02</leafValues></_>
        <_>
          <internalNodes>
            0 -1 244 -5.3859185427427292e-03</internalNodes>
          <leafValues>
            7.1651095151901245e-01 -5.5135190486907959e-02</leafValues></_>
        <_>
          <internalNodes>
            0 -1 184 -7.3069445788860321e-03</internalNodes>
          <leafValues>
            -5.7586175203323364e-01 8.8234856724739075e-02</leafValues></_>
        <_>
          <internalNodes>
            0 -1 110 9.6337910508736968e-04</internalNodes>
          <leafValues>
            6.7176297307014465e-02 -5.6221967935562134e-01</leafValues></_>
        <_>
          <internalNodes>
            0 -1 543 1.7519023269414902e-02</internalNodes>
          <leafValues>
            5.1593832671642303e-02 -7.2927296161651611e-01</leafValues></_>
        <_>
          <internalNodes>
            0 -1 410 -3.5710667725652456e-04</internalNodes>
          <leafValues>
            5.2396833896636963e-01 -9.0002976357936859e-02</leafValues></_>
        <_>
          <internalNodes>
            0 -1 604 -2.9708444344578311e-05</internalNodes>
          <leafValues>
            -2.5536805391311646e-01 1.8820987641811371e-01</leafValues></_>
        <_>
          <internalNodes>
            0 -1 44 3.3808788430178538e-05</internalNodes>
          <leafValues>
            -2.1735982596874237e-01 2.0068722963333130e-01</leafValues></_>
        <_>
          <internalNodes>
            0 -1 568 8.3516933955252171e-04</internalNodes>
          <leafValues>
            8.8906548917293549e-02 -5.3548240661621094e-01</leafValues></_>
        <_>
          <internalNodes>
            0 -1 88 7.1743959560990334e-03</internalNodes>
          <leafValues>
            6.2859639525413513e-02 -6.4681148529052734e-01</leafValues></_>
        <_>
          <internalNodes>
            0 -1 298 -3.4324434818699956e-04</internalNodes>
          <leafValues>
            2.6895895600318909e-01 -1.6781909763813019e-01</leafValues></_>
        <_>
          <internalNodes>
            0 -1 361 -4.2705779196694493e-04</internalNodes>
          <leafValues>
            2.9031443595886230e-01 -1.4334231615066528e-01</leafValues></_>
        <_>
          <internalNodes>
            0 -1 224 5.2074845880270004e-03</internalNodes>
          <leafValues>
            -1.0157170891761780e-01 4.3069273233413696e-01</leafValues></_>
        <_>
          <internalNodes>
            0 -1 515 1.4897012442816049e-04</internalNodes>
          <leafValues>
            -1.4420291781425476e-01 2.8631490468978882e-01</leafValues></_>
        <_>
          <internalNodes>
            0 -1 518 -2.1983963961247355e-05</internalNodes>
          <leafValues>
            2.0944464206695557e-01 -1.9952762126922607e-01</leafValues></_>
        <_>
          <internalNodes>
            0 -1 524 -3.6985268816351891e-03</internalNodes>
          <leafValues>
            5.3538125753402710e-01 -1.1335432529449463e-01</leafValues></_>
        <_>
          <internalNodes>
            0 -1 417 8.4147810935974121e-02</internalNodes>
          <leafValues>
            -1.1330085247755051e-01 4.0637424588203430e-01</leafValues></_>
        <_>
          <internalNodes>
            0 -1 254 -1.9036501646041870e-02</internalNodes>
          <leafValues>
            6.9251412153244019e-01 -5.6561186909675598e-02</leafValues></_>
        <_>
          <internalNodes>
            0 -1 427 7.1870209649205208e-04</internalNodes>
          <leafValues>
            -6.6309161484241486e-02 5.7674062252044678e-01</leafValues></_>
        <_>
          <internalNodes>
            0 -1 476 -2.4458964617224410e-05</internalNodes>
          <leafValues>
            -4.1180118918418884e-01 1.1121473461389542e-01</leafValues></_>
        <_>
          <internalNodes>
            0 -1 139 -1.3359250733628869e-03</internalNodes>
          <leafValues>
            -5.5871993303298950e-01 7.6163120567798615e-02</leafValues></_>
        <_>
          <internalNodes>
            0 -1 391 2.5837426073849201e-04</internalNodes>
          <leafValues>
            -8.2879520952701569e-02 6.2881094217300415e-01</leafValues></_>
        <_>
          <internalNodes>
            0 -1 197 3.1613795727025717e-05</internalNodes>
          <leafValues>
            -1.8470720946788788e-01 2.2754012048244476e-01</leafValues></_>
        <_>
          <internalNodes>
            0 -1 64 1.4959556283429265e-03</internalNodes>
          <leafValues>
            8.0561242997646332e-02 -5.4944199323654175e-01</leafValues></_>
        <_>
          <internalNodes>
            0 -1 504 9.1504794545471668e-04</internalNodes>
          <leafValues>
            -1.2947846949100494e-01 3.5560783743858337e-01</leafValues></_>
        <_>
          <internalNodes>
            0 -1 252 -5.9419739991426468e-02</internalNodes>
          <leafValues>
            -5.6410855054855347e-01 8.7702482938766479e-02</leafValues></_>
        <_>
          <internalNodes>
            0 -1 433 -1.0868012905120850e-03</internalNodes>
          <leafValues>
            2.3171561956405640e-01 -1.8170364201068878e-01</leafValues></_></weakClassifiers></_>
    <!-- stage 16 -->
    <_>
      <maxWeakCount>41</maxWeakCount>
      <stageThreshold>-8.2669198513031006e-01</stageThreshold>
      <weakClassifiers>
        <_>
          <internalNodes>
            0 -1 595 7.7501914347521961e-05</internalNodes>
          <leafValues>
            3.2476803660392761e-01 -2.7638190984725952e-01</leafValues></_>
        <_>
          <internalNodes>
            0 -1 148 -2.9702639207243919e-02</internalNodes>
          <leafValues>
            3.3257812261581421e-01 -1.1279089003801346e-01</leafValues></_>
        <_>
          <internalNodes>
            0 -1 162 2.6394403539597988e-03</internalNodes>
          <leafValues>
            -9.3206718564033508e-02 4.0658226609230042e-01</leafValues></_>
        <_>
          <internalNodes>
            0 -1 411 -2.7718703495338559e-04</internalNodes>
          <leafValues>
            5.5450248718261719e-01 -6.6018827259540558e-02</leafValues></_>
        <_>
          <internalNodes>
            0 -1 18 1.0689939372241497e-03</internalNodes>
          <leafValues>
            2.7894195169210434e-02 -6.3024771213531494e-01</leafValues></_>
        <_>
          <internalNodes>
            0 -1 455 -8.7797141168266535e-04</internalNodes>
          <leafValues>
            3.5214865207672119e-01 -1.1558467149734497e-01</leafValues></_>
        <_>
          <internalNodes>
            0 -1 316 -6.0081924311816692e-04</internalNodes>
          <leafValues>
            3.8373738527297974e-01 -1.0846833139657974e-01</leafValues></_>
        <_>
          <internalNodes>
            0 -1 271 2.0296892616897821e-03</internalNodes>
          <leafValues>
            7.5452491641044617e-02 -5.9363394975662231e-01</leafValues></_>
        <_>
          <internalNodes>
            0 -1 221 -9.7893485799431801e-03</internalNodes>
          <leafValues>
            6.0655778646469116e-01 -8.2176886498928070e-02</leafValues></_>
        <_>
          <internalNodes>
            0 -1 65 2.0254969967936631e-06</internalNodes>
          <leafValues>
            -2.1312455832958221e-01 1.9062665104866028e-01</leafValues></_>
        <_>
          <internalNodes>
            0 -1 277 -3.5891699371859431e-04</internalNodes>
          <leafValues>
            7.8268301486968994e-01 -4.5009344816207886e-02</leafValues></_>
        <_>
          <internalNodes>
            0 -1 20 1.8709741998463869e-03</internalNodes>
          <leafValues>
            8.8086329400539398e-02 -5.5590265989303589e-01</leafValues></_>
        <_>
          <internalNodes>
            0 -1 90 5.5676861666142941e-04</internalNodes>
          <leafValues>
            -1.5470331907272339e-01 2.6852875947952271e-01</leafValues></_>
        <_>
          <internalNodes>
            0 -1 440 -4.4222804717719555e-04</internalNodes>
          <leafValues>
            7.8755158185958862e-01 -5.0054114311933517e-02</leafValues></_>
        <_>
          <internalNodes>
            0 -1 249 1.8960989109473303e-05</internalNodes>
          <leafValues>
            1.0997928678989410e-01 -3.7196087837219238e-01</leafValues></_>
        <_>
          <internalNodes>
            0 -1 491 8.2474516239017248e-04</internalNodes>
          <leafValues>
            -1.4278948307037354e-01 2.9543161392211914e-01</leafValues></_>
        <_>
          <internalNodes>
            0 -1 235 -2.2970543795963749e-05</internalNodes>
          <leafValues>
            -2.8264722228050232e-01 1.4987622201442719e-01</leafValues></_>
        <_>
          <internalNodes>
            0 -1 421 3.7739705294370651e-04</internalNodes>
          <leafValues>
            -1.6924412548542023e-01 2.4549688398838043e-01</leafValues></_>
        <_>
          <internalNodes>
            0 -1 422 -1.2709580361843109e-02</internalNodes>
          <leafValues>
            4.3481406569480896e-01 -9.9363774061203003e-02</leafValues></_>
        <_>
          <internalNodes>
            0 -1 572 -1.9320008505019359e-05</internalNodes>
          <leafValues>
            -2.2396089136600494e-01 1.8349754810333252e-01</leafValues></_>
        <_>
          <internalNodes>
            0 -1 484 8.3402956079225987e-06</internalNodes>
          <leafValues>
            1.3708169758319855e-01 -3.2254114747047424e-01</leafValues></_>
        <_>
          <internalNodes>
            0 -1 333 8.1967201549559832e-04</internalNodes>
          <leafValues>
            -1.1803274601697922e-01 3.8037139177322388e-01</leafValues></_>
        <_>
          <internalNodes>
            0 -1 179 1.1826164089143276e-02</internalNodes>
          <leafValues>
            -1.1037247627973557e-01 3.6981412768363953e-01</leafValues></_>
        <_>
          <internalNodes>
            0 -1 342 -7.6725962571799755e-04</internalNodes>
          <leafValues>
            3.8373151421546936e-01 -1.0883970558643341e-01</leafValues></_>
        <_>
          <internalNodes>
            0 -1 248 -1.9382998289074749e-05</internalNodes>
          <leafValues>
            -2.3842245340347290e-01 1.7482855916023254e-01</leafValues></_>
        <_>
          <internalNodes>
            0 -1 308 1.0099305654875934e-04</internalNodes>
          <leafValues>
            -1.5503956377506256e-01 2.7118867635726929e-01</leafValues></_>
        <_>
          <internalNodes>
            0 -1 178 9.1230974067002535e-04</internalNodes>
          <leafValues>
            -1.8645209074020386e-01 2.3830303549766541e-01</leafValues></_>
        <_>
          <internalNodes>
            0 -1 53 1.2930275872349739e-02</internalNodes>
          <leafValues>
            -1.6514684259891510e-01 2.8778272867202759e-01</leafValues></_>
        <_>
          <internalNodes>
            0 -1 193 -3.0758499633520842e-04</internalNodes>
          <leafValues>
            2.9471343755722046e-01 -1.5025046467781067e-01</leafValues></_>
        <_>
          <internalNodes>
            0 -1 200 1.9656214863061905e-02</internalNodes>
          <leafValues>
            -6.9009833037853241e-02 5.9087258577346802e-01</leafValues></_>
        <_>
          <internalNodes>
            0 -1 205 5.8412794023752213e-03</internalNodes>
          <leafValues>
            -1.3776084780693054e-01 3.2482501864433289e-01</leafValues></_>
        <_>
          <internalNodes>
            0 -1 287 -3.8809092075098306e-05</internalNodes>
          <leafValues>
            -4.2837926745414734e-01 1.0709904134273529e-01</leafValues></_>
        <_>
          <internalNodes>
            0 -1 607 3.4492905251681805e-04</internalNodes>
          <leafValues>
            1.2714889645576477e-01 -3.4439936280250549e-01</leafValues></_>
        <_>
          <internalNodes>
            0 -1 37 1.1344156519044191e-05</internalNodes>
          <leafValues>
            -2.5205761194229126e-01 1.8759313225746155e-01</leafValues></_>
        <_>
          <internalNodes>
            0 -1 42 1.3393241679295897e-03</internalNodes>
          <leafValues>
            1.2326025962829590e-01 -3.5372114181518555e-01</leafValues></_>
        <_>
          <internalNodes>
            0 -1 346 3.0418194364756346e-04</internalNodes>
          <leafValues>
            -8.8671833276748657e-02 5.3158533573150635e-01</leafValues></_>
        <_>
          <internalNodes>
            0 -1 511 1.6961201254162006e-05</internalNodes>
          <leafValues>
            -1.7239007353782654e-01 2.4086600542068481e-01</leafValues></_>
        <_>
          <internalNodes>
            0 -1 386 -8.8598318397998810e-03</internalNodes>
          <leafValues>
            -5.9168112277984619e-01 7.4038758873939514e-02</leafValues></_>
        <_>
          <internalNodes>
            0 -1 441 -4.2362391832284629e-04</internalNodes>
          <leafValues>
            8.0774748325347900e-01 -6.3218303024768829e-02</leafValues></_>
        <_>
          <internalNodes>
            0 -1 482 -5.8829374611377716e-03</internalNodes>
          <leafValues>
            3.8750666379928589e-01 -9.6029736101627350e-02</leafValues></_>
        <_>
          <internalNodes>
            0 -1 561 2.0251136447768658e-05</internalNodes>
          <leafValues>
            1.5136910974979401e-01 -2.9789936542510986e-01</leafValues></_></weakClassifiers></_>
    <!-- stage 17 -->
    <_>
      <maxWeakCount>50</maxWeakCount>
      <stageThreshold>-9.0402352809906006e-01</stageThreshold>
      <weakClassifiers>
        <_>
          <internalNodes>
            0 -1 453 5.7078236714005470e-03</internalNodes>
          <leafValues>
            8.2159623503684998e-02 4.4117647409439087e-01</leafValues></_>
        <_>
          <internalNodes>
            0 -1 399 -3.1864317134022713e-04</internalNodes>
          <leafValues>
            5.0858575105667114e-01 -5.9132069349288940e-02</leafValues></_>
        <_>
          <internalNodes>
            0 -1 307 -1.2265382334589958e-02</internalNodes>
          <leafValues>
            3.8547572493553162e-01 -1.0975813120603561e-01</leafValues></_>
        <_>
          <internalNodes>
            0 -1 352 7.3804520070552826e-03</internalNodes>
          <leafValues>
            -1.5831360220909119e-01 2.4421310424804688e-01</leafValues></_>
        <_>
          <internalNodes>
            0 -1 577 1.2765660358127207e-04</internalNodes>
          <leafValues>
            9.0816974639892578e-02 -4.6655333042144775e-01</leafValues></_>
        <_>
          <internalNodes>
            0 -1 260 6.3272542320191860e-04</internalNodes>
          <leafValues>
